{"learner":{"attributes":{"scikit_learn":"{\"_estimator_type\": \"classifier\"}"},"feature_names":[],"feature_types":[],"gradient_booster":{"model":{"gbtree_model_param":{"num_parallel_tree":"1","num_trees":"300"},"iteration_indptr":[0,3,6,9,12,15,18,21,24,27,30,33,36,39,42,45,48,51,54,57,60,63,66,69,72,75,78,81,84,87,90,93,96,99,102,105,108,111,114,117,120,123,126,129,132,135,138,141,144,147,150,153,156,159,162,165,168,171,174,177,180,183,186,189,192,195,198,201,204,207,210,213,216,219,222,225,228,231,234,237,240,243,246,249,252,255,258,261,264,267,270,273,276,279,282,285,288,291,294,297,300],"tree_info":[0,1,2,0,1,2,0,1,2,0,1,2,0,1,2,0,1,2,0,1,2,0,1,2,0,1,2,0,1,2,0,1,2,0,1,2,0,1,2,0,1,2,0,1,2,0,1,2,0,1,2,0,1,2,0,1,2,0,1,2,0,1,2,0,1,2,0,1,2,0,1,2,0,1,2,0,1,2,0,1,2,0,1,2,0,1,2,0,1,2,0,1,2,0,1,2,0,1,2,0,1,2,0,1,2,0,1,2,0,1,2,0,1,2,0,1,2,0,1,2,0,1,2,0,1,2,0,1,2,0,1,2,0,1,2,0,1,2,0,1,2,0,1,2,0,1,2,0,1,2,0,1,2,0,1,2,0,1,2,0,1,2,0,1,2,0,1,2,0,1,2,0,1,2,0,1,2,0,1,2,0,1,2,0,1,2,0,1,2,0,1,2,0,1,2,0,1,2,0,1,2,0,1,2,0,1,2,0,1,2,0,1,2,0,1,2,0,1,2,0,1,2,0,1,2,0,1,2,0,1,2,0,1,2,0,1,2,0,1,2,0,1,2,0,1,2,0,1,2,0,1,2,0,1,2,0,1,2,0,1,2,0,1,2,0,1,2,0,1,2,0,1,2,0,1,2,0,1,2,0,1,2,0,1,2,0,1,2,0,1,2,0,1,2,0,1,2,0,1,2],"trees":[{"base_weights":[1.9001214E-1,5.754509E-1,-2.868007E-1,-4.4357982E-1,7.022222E-1,-5.4914343E-1,1.093117E-1,-2.0826449E-1,-2.068966E-1,1.1673109E-2,7.9853684E-1,-6.6873074E-1,2.6174492E-1,5.9517425E-1,-3.7400535E-1,-5.1428574E-1,4.897959E-1,4.8837206E-1,-4.3795624E-1,4.7619008E-2,8.829054E-1,7.31707E-2,-6.9477063E-1,-4.7368425E-1,6.5346533E-1,9.3950176E-1,-4.1584164E-1,-4.6956527E-1,5.121951E-1,-8.1081115E-2,-1.9870132E-1,-1.2857145E-1,2.6756757E-1,-7.792212E-2,3.3934426E-1,-2.0495051E-1,1.9999997E-1,-6.153847E-1,1E0,1.1433225E0,5.211679E-1,-1.4400001E-1,1.7999999E-1,7.2E-2,-7.133551E-1,-7.663455E-9,-1.8E-1,9.7402596E-1,-2.727273E-1,-1.13207586E-1,1.1392405E0,7.31707E-2,-1.956522E-1,-6.206897E-1,-4.037734E-8,-1.2857145E-1,3.1034482E-1,1.2857142E-1,-1.4400001E-1,-1.3584907E-1,1.6363636E-1,1.6363636E-1,-1.2857145E-1,-2.0571432E-1,-7.663455E-9,7.2E-2,3.4615386E-1,3.8491967E-1,3.7190072E-2,5.341233E-3,2.94958E-1,-2.1948661E-1,-1.23287685E-1,-7.663455E-9,3.4615386E-1,-1.2857145E-1,-7.663455E-9,-1.6363637E-1,1.2413793E-1,-3.600001E-2,3.7058824E-1,-1.5517244E-1,2.5714284E-1,-7.663455E-9,-1.9518074E-1,2.5714284E-1,-6.6666685E-2],"categories":[],"categories_nodes":[],"categories_segments":[],"categories_sizes":[],"default_left":[0,0,0,0,0,0,0,0,0,0,0,0,0,0,0,0,0,0,0,0,0,0,0,0,0,0,0,0,0,0,0,0,0,0,0,0,0,0,0,0,0,0,0,0,0,0,0,0,0,0,0,0,0,0,0,0,0,0,0,0,0,0,0,0,0,0,0,0,0,0,0,0,0,0,0,0,0,0,0,0,0,0,0,0,0,0,0],"id":0,"left_children":[1,3,5,7,9,11,13,-1,15,17,19,21,23,25,27,29,31,33,35,37,39,41,43,45,47,49,51,53,55,57,-1,-1,-1,59,-1,-1,61,63,65,67,69,-1,-1,-1,71,-1,-1,73,75,77,79,81,-1,83,85,-1,-1,-1,-1,-1,-1,-1,-1,-1,-1,-1,-1,-1,-1,-1,-1,-1,-1,-1,-1,-1,-1,-1,-1,-1,-1,-1,-1,-1,-1,-1,-1],"loss_changes":[8.399013E1,3.2937584E1,2.131687E1,1.5503163E0,1.4955421E1,1.2124138E1,1.9556578E1,0E0,3.7021818E0,6.3344216E0,1.2466843E1,2.130848E0,5.0789037E0,1.4818346E1,3.787879E0,6.945596E-1,2.3927193E0,5.305475E0,2.517916E0,1.3875458E1,1.6119858E1,1.6156098E0,1.9798508E0,3.7894738E-1,3.5975308E0,6.693966E0,1.3446658E0,2.7202406E0,2.6817253E0,1.0415444E0,0E0,0E0,0E0,2.2465081E0,0E0,0E0,1.3194804E0,5.626373E-1,7.753849E-1,1.4418091E1,1.7683414E1,0E0,0E0,0E0,2.6460648E-1,0E0,0E0,1.4985018E0,1.5584415E-1,1.5671616E0,3.333374E0,2.5519645E0,0E0,5.384302E-1,2.1587303E0,0E0,0E0,0E0,0E0,0E0,0E0,0E0,0E0,0E0,0E0,0E0,0E0,0E0,0E0,0E0,0E0,0E0,0E0,0E0,0E0,0E0,0E0,0E0,0E0,0E0,0E0,0E0,0E0,0E0,0E0,0E0,0E0],"parents":[2147483647,0,0,1,1,2,2,3,3,4,4,5,5,6,6,8,8,9,9,10,10,11,11,12,12,13,13,14,14,15,15,16,16,17,17,18,18,19,19,20,20,21,21,22,22,23,23,24,24,25,25,26,26,27,27,28,28,29,29,33,33,36,36,37,37,38,38,39,39,40,40,44,44,47,47,48,48,49,49,50,50,51,51,53,53,54,54],"right_children":[2,4,6,8,10,12,14,-1,16,18,20,22,24,26,28,30,32,34,36,38,40,42,44,46,48,50,52,54,56,58,-1,-1,-1,60,-1,-1,62,64,66,68,70,-1,-1,-1,72,-1,-1,74,76,78,80,82,-1,84,86,-1,-1,-1,-1,-1,-1,-1,-1,-1,-1,-1,-1,-1,-1,-1,-1,-1,-1,-1,-1,-1,-1,-1,-1,-1,-1,-1,-1,-1,-1,-1,-1],"split_conditions":[-2.130393E-1,-1.2280241E-1,-1.07746525E-2,-8.998429E-1,-9.2876184E-1,4.9137026E-1,-9.20114E-1,-2.0826449E-1,7.1584576E-1,1.0507232E0,-5.066969E-1,-1.3958658E-1,-1.6929789E0,4.7717083E-1,1.0907402E0,-1.1685106E0,-5.0146645E-1,2.7391335E-1,-4.4313756E-1,-1.7944275E-1,5.4552513E-1,-1.9727063E-1,-5.637075E-1,-1.6748997E0,-1.0122867E-1,-1.1379449E0,3.596388E-1,4.850695E-1,-2.3524557E-1,5.23232E-1,-1.9870132E-1,-1.2857145E-1,2.6756757E-1,-3.677726E-1,3.3934426E-1,-2.0495051E-1,-9.354659E-1,1.3356551E0,1.6450085E-1,5.169135E-1,1.2442889E0,-1.4400001E-1,1.7999999E-1,7.2E-2,3.97965E-1,-7.663455E-9,-1.8E-1,-6.273127E-1,3.8890037E-1,1.7896593E-1,6.7128664E-1,6.1418146E-1,-1.956522E-1,-5.81748E-4,2.7202883E-1,-1.2857145E-1,3.1034482E-1,1.2857142E-1,-1.4400001E-1,-1.3584907E-1,1.6363636E-1,1.6363636E-1,-1.2857145E-1,-2.0571432E-1,-7.663455E-9,7.2E-2,3.4615386E-1,3.8491967E-1,3.7190072E-2,5.341233E-3,2.94958E-1,-2.1948661E-1,-1.23287685E-1,-7.663455E-9,3.4615386E-1,-1.2857145E-1,-7.663455E-9,-1.6363637E-1,1.2413793E-1,-3.600001E-2,3.7058824E-1,-1.5517244E-1,2.5714284E-1,-7.663455E-9,-1.9518074E-1,2.5714284E-1,-6.6666685E-2],"split_indices":[8,10,9,8,1,1,1,0,1,3,2,8,9,9,1,0,2,11,8,0,10,9,0,0,2,1,10,8,2,1,0,0,0,2,0,0,1,1,9,0,1,0,0,0,1,0,0,2,0,9,0,0,0,9,11,0,0,0,0,0,0,0,0,0,0,0,0,0,0,0,0,0,0,0,0,0,0,0,0,0,0,0,0,0,0,0,0],"split_type":[0,0,0,0,0,0,0,0,0,0,0,0,0,0,0,0,0,0,0,0,0,0,0,0,0,0,0,0,0,0,0,0,0,0,0,0,0,0,0,0,0,0,0,0,0,0,0,0,0,0,0,0,0,0,0,0,0,0,0,0,0,0,0,0,0,0,0,0,0,0,0,0,0,0,0,0,0,0,0,0,0,0,0,0,0,0,0],"sum_hessian":[4.5511108E2,2.5155554E2,2.0355554E2,2.7555553E1,2.2399998E2,1.2222221E2,8.133333E1,1.2444444E1,1.5111111E1,2.7555553E1,1.9644443E2,1.0666666E2,1.5555554E1,4.0444443E1,4.0888885E1,1.0666666E1,4.444444E0,1.3333332E1,1.4222221E1,1.9999998E1,1.7644443E2,3.5555553E0,1.0311111E2,5.333333E0,1.0222221E1,3.0222221E1,1.0222221E1,3.7333332E1,3.5555553E0,3.111111E0,7.5555553E0,1.3333333E0,3.111111E0,7.5555553E0,5.7777777E0,1.0222221E1,3.9999998E0,1.1999999E1,7.9999995E0,1.0133333E2,7.511111E1,1.7777777E0,1.7777777E0,1.7777777E0,1.0133333E2,1.3333333E0,3.9999998E0,7.5555553E0,2.6666665E0,4.8888884E0,2.5333332E1,3.5555553E0,6.666666E0,2.7999998E1,9.333333E0,1.3333333E0,2.222222E0,1.3333333E0,1.7777777E0,4.8888884E0,2.6666665E0,2.6666665E0,1.3333333E0,1.0666666E1,1.3333333E0,1.7777777E0,6.222222E0,8.8888885E1,1.2444444E1,3.6444443E1,3.8666664E1,9.422221E1,7.1111107E0,1.3333333E0,6.222222E0,1.3333333E0,1.3333333E0,2.6666665E0,2.222222E0,1.7777777E0,2.3555553E1,2.222222E0,1.3333333E0,1.3333333E0,2.6666664E1,1.3333333E0,7.9999995E0],"tree_param":{"num_deleted":"0","num_feature":"12","num_nodes":"87","size_leaf_vector":"1"}},{"base_weights":[-4.9841663E-1,-2.2443579E-1,1.2171428E0,-2.0000003E-1,1.3251534E0,-1.6363637E-1,1.2857142E-1,-1.2857145E-1,1.3773584E0,6.486486E-1,1.4097996E0,-7.663455E-9,2.8800002E-1,1.2857142E-1,1.4279176E0,4.3411765E-1,1.2857142E-1],"categories":[],"categories_nodes":[],"categories_segments":[],"categories_sizes":[],"default_left":[0,0,0,0,0,0,0,0,0,0,0,0,0,0,0,0,0],"id":1,"left_children":[1,-1,3,5,7,-1,-1,-1,9,11,13,-1,-1,-1,15,-1,-1],"loss_changes":[1.9629936E2,0E0,9.193893E0,1.3194805E0,5.5646973E0,0E0,0E0,0E0,3.3846283E-1,8.302702E-1,2.7494812E-1,0E0,0E0,0E0,3.0863953E-1,0E0,0E0],"parents":[2147483647,0,0,2,2,3,3,4,4,8,8,9,9,10,10,14,14],"right_children":[2,-1,4,6,8,-1,-1,-1,10,12,14,-1,-1,-1,16,-1,-1],"split_conditions":[2.2300715E0,-2.2443579E-1,-1.1294922E0,-9.6940655E-1,-1.7587401E-1,-1.6363637E-1,1.2857142E-1,-1.2857145E-1,-4.5786884E-1,-8.2881635E-1,-5.637075E-1,-7.663455E-9,2.8800002E-1,1.2857142E-1,1.3024697E0,4.3411765E-1,1.2857142E-1],"split_indices":[5,0,9,1,4,0,0,0,8,1,0,0,0,0,0,0,0],"split_type":[0,0,0,0,0,0,0,0,0,0,0,0,0,0,0,0,0],"sum_hessian":[4.5511108E2,3.9777774E2,5.733333E1,3.9999998E0,5.333333E1,2.6666665E0,1.3333333E0,1.3333333E0,5.1999996E1,3.111111E0,4.8888885E1,1.3333333E0,1.7777777E0,1.3333333E0,4.7555553E1,4.622222E1,1.3333333E0],"tree_param":{"num_deleted":"0","num_feature":"12","num_nodes":"17","size_leaf_vector":"1"}},{"base_weights":[3.0840436E-1,4.2063704E-1,-6.326531E-1,1.5019934E-1,8.4631574E-1,-6.900727E-1,1.6216213E-1,1.1012658E0,3.844254E-2,1.0477612E0,3.5664332E-1,-2.1995015E-1,1.2857142E-1,-1.4400001E-1,2.5714284E-1,4.1652894E-1,7.4399996E-1,7.1206224E-1,-5.8955688E-2,1.0992835E0,-1.7027028E-1,8.122271E-1,-1.5789479E-1,9.836062E-2,3.5753426E-1,2.0930229E-1,1.1386861E0,6.548223E-1,-1.4689271E-1,1.152381E0,-3.658537E-1,1.9354835E-1,1.1586207E0,-4.2038223E-1,5.4098356E-1,-1.7560977E-1,3.1034482E-1,2.2207792E-1,-1.47541E-1,4.09901E-1,1.2E-1,3.7440002E-1,-1.0000002E-1,-1.2562707E-1,6.569342E-2,4.1497007E-1,2.6225165E-1,-7.663455E-9,-1.5517244E-1,2.195122E-1,-5.901641E-2,-7.663455E-9,3.7894738E-1,2.5714284E-1,-1.7379314E-1,3E-1,-1.4400001E-1],"categories":[],"categories_nodes":[],"categories_segments":[],"categories_sizes":[],"default_left":[0,0,0,0,0,0,0,0,0,0,0,0,0,0,0,0,0,0,0,0,0,0,0,0,0,0,0,0,0,0,0,0,0,0,0,0,0,0,0,0,0,0,0,0,0,0,0,0,0,0,0,0,0,0,0,0,0],"id":2,"left_children":[1,3,5,7,9,11,13,15,17,19,21,-1,-1,-1,-1,-1,23,25,27,29,-1,31,33,35,-1,37,39,41,43,45,47,49,51,53,55,-1,-1,-1,-1,-1,-1,-1,-1,-1,-1,-1,-1,-1,-1,-1,-1,-1,-1,-1,-1,-1,-1],"loss_changes":[4.8439392E1,4.6854454E1,2.3481636E0,2.6612368E1,1.524469E1,2.5263977E0,2.2461777E0,1.668644E0,1.4833246E1,9.917427E0,1.1302038E1,0E0,0E0,0E0,0E0,0E0,3.8981228E0,5.8865337E0,1.2517181E1,8.866684E0,0E0,5.228655E0,4.487462E0,4.943678E0,0E0,5.699749E0,2.0132694E0,1.3246212E1,1.7697382E1,5.5344696E0,2.5231284E-1,2.3142228E0,1.9513607E0,4.03838E0,3.6563926E0,0E0,0E0,0E0,0E0,0E0,0E0,0E0,0E0,0E0,0E0,0E0,0E0,0E0,0E0,0E0,0E0,0E0,0E0,0E0,0E0,0E0,0E0],"parents":[2147483647,0,0,1,1,2,2,3,3,4,4,5,5,6,6,7,7,8,8,9,9,10,10,16,16,17,17,18,18,19,19,21,21,22,22,23,23,25,25,26,26,27,27,28,28,29,29,30,30,31,31,32,32,33,33,34,34],"right_children":[2,4,6,8,10,12,14,16,18,20,22,-1,-1,-1,-1,-1,24,26,28,30,-1,32,34,36,-1,38,40,42,44,46,48,50,52,54,56,-1,-1,-1,-1,-1,-1,-1,-1,-1,-1,-1,-1,-1,-1,-1,-1,-1,-1,-1,-1,-1,-1],"split_conditions":[2.3563201E0,-2.130393E-1,1.9241927E0,-1.5337187E-1,6.265994E-1,1.1761408E1,-9.125014E-1,-8.998429E-1,-9.2876184E-1,1.676908E0,4.4528514E-1,-2.1995015E-1,1.2857142E-1,-1.4400001E-1,2.5714284E-1,4.1652894E-1,-1.3504657E-1,1.0507232E0,-5.066969E-1,3.2389042E0,-1.7027028E-1,7.942771E-1,-9.2668986E-1,-4.236446E-1,3.5753426E-1,2.7391335E-1,-4.4313756E-1,-1.7944275E-1,5.4552513E-1,-1.9727063E-1,-5.4144067E-1,1.7896593E-1,-1.0371422E0,6.7128664E-1,2.5069118E-1,-1.7560977E-1,3.1034482E-1,2.2207792E-1,-1.47541E-1,4.09901E-1,1.2E-1,3.7440002E-1,-1.0000002E-1,-1.2562707E-1,6.569342E-2,4.1497007E-1,2.6225165E-1,-7.663455E-9,-1.5517244E-1,2.195122E-1,-5.901641E-2,-7.663455E-9,3.7894738E-1,2.5714284E-1,-1.7379314E-1,3E-1,-1.4400001E-1],"split_indices":[5,8,8,10,3,7,1,8,1,1,8,0,0,0,0,0,2,3,2,4,0,2,1,0,0,11,8,0,10,9,0,9,1,0,9,0,0,0,0,0,0,0,0,0,0,0,0,0,0,0,0,0,0,0,0,0,0],"split_type":[0,0,0,0,0,0,0,0,0,0,0,0,0,0,0,0,0,0,0,0,0,0,0,0,0,0,0,0,0,0,0,0,0,0,0,0,0,0,0,0,0,0,0,0,0,0,0,0,0,0,0,0,0,0,0,0,0],"sum_hessian":[4.5511108E2,4.0711108E2,4.7999996E1,2.4977776E2,1.5733333E2,4.4888885E1,3.111111E0,2.5333332E1,2.2444443E2,1.1066666E2,4.6666664E1,4.3555553E1,1.3333333E0,1.7777777E0,1.3333333E0,1.2444444E1,1.2888888E1,2.7555553E1,1.9688887E2,1.0755555E2,3.111111E0,2.4444443E1,2.2222221E1,5.7777777E0,7.1111107E0,1.3333332E1,1.4222221E1,2.0888887E1,1.7599998E2,1.0399999E2,3.5555553E0,9.333333E0,1.5111111E1,1.6444443E1,5.7777777E0,3.5555553E0,2.222222E0,7.5555553E0,5.7777777E0,1.0222221E1,3.9999998E0,1.2888888E1,7.9999995E0,1.00888885E2,7.511111E1,5.4666664E1,4.9333332E1,1.3333333E0,2.222222E0,3.5555553E0,5.7777777E0,1.3333333E0,1.3777777E1,1.3333333E0,1.5111111E1,3.9999998E0,1.7777777E0],"tree_param":{"num_deleted":"0","num_feature":"12","num_nodes":"57","size_leaf_vector":"1"}},{"base_weights":[1.4818795E-1,-4.9547574E-1,3.123599E-1,-6.211631E-1,1.9669291E-1,4.0375224E-1,-3.2004592E-1,5.3566895E-2,-1.9965197E-1,-1.7070094E-1,6.4571923E-1,-1.9558188E-1,4.6290046E-1,2.0166741E-1,-4.002865E-1,-1.571916E-1,2.3761523E-1,-2.7543109E-2,8.1000316E-1,-1.7936695E-1,-2.339036E-2,5.012811E-1,-4.3592656E-1,1.4053811E-1,-4.559869E-1,7.227454E-2,2.7020887E-1,-2.2535346E-1,1.9104601E-1,2.7945492E-1,6.549615E-1,-5.6813407E-1,1.08095184E-1,-2.664065E-1,-2.003221E-1,-1.04820065E-1,1.9355075E-1,1.5436155E-1,-4.1989893E-2,-1.2222073E-1,2.0464832E-1,4.224723E-3,-1.9433519E-1,-1.905008E-1,3.0170789E-2],"categories":[],"categories_nodes":[],"categories_segments":[],"categories_sizes":[],"default_left":[0,0,0,0,0,0,0,0,0,0,0,0,0,0,0,0,0,0,0,0,0,0,0,0,0,0,0,0,0,0,0,0,0,0,0,0,0,0,0,0,0,0,0,0,0],"id":3,"left_children":[1,3,5,7,9,11,13,15,-1,-1,17,19,21,-1,23,-1,-1,-1,25,-1,27,29,31,-1,33,-1,-1,35,-1,37,39,41,-1,43,-1,-1,-1,-1,-1,-1,-1,-1,-1,-1,-1],"loss_changes":[4.8065468E1,8.171745E0,2.1043983E1,2.3858051E0,5.517456E0,1.1314423E1,3.9515057E0,2.8756707E0,0E0,0E0,1.2751498E0,2.0048685E0,1.0170116E1,0E0,2.3145075E0,0E0,0E0,0E0,2.0658016E-1,0E0,3.00346E0,9.264244E0,1.5046201E0,0E0,1.4803562E0,0E0,0E0,2.0787888E0,0E0,1.1426743E1,4.98687E0,5.1821756E-1,0E0,3.2369885E0,0E0,0E0,0E0,0E0,0E0,0E0,0E0,0E0,0E0,0E0,0E0],"parents":[2147483647,0,0,1,1,2,2,3,3,4,4,5,5,6,6,7,7,10,10,11,11,12,12,14,14,18,18,20,20,21,21,22,22,24,24,27,27,29,29,30,30,31,31,33,33],"right_children":[2,4,6,8,10,12,14,16,-1,-1,18,20,22,-1,24,-1,-1,-1,26,-1,28,30,32,-1,34,-1,-1,36,-1,38,40,42,-1,44,-1,-1,-1,-1,-1,-1,-1,-1,-1,-1,-1],"split_conditions":[-2.5908792E-1,4.1255763E-1,8.139415E-1,-5.637075E-1,-1.7218258E0,-3.2320447E-2,-9.6435905E-1,1.1523593E-1,-1.9965197E-1,-1.7070094E-1,-6.078294E-1,-8.998429E-1,8.789382E-1,2.0166741E-1,-1.8005963E-1,-1.571916E-1,2.3761523E-1,-2.7543109E-2,-2.5892583E-1,-1.7936695E-1,7.1584576E-1,1.7896593E-1,3.4290177E-1,1.4053811E-1,7.847023E-1,7.227454E-2,2.7020887E-1,6.607907E-1,1.9104601E-1,-1.1029307E-1,1.8675523E-1,9.310095E-1,1.08095184E-1,3.4007993E-1,-2.003221E-1,-1.04820065E-1,1.9355075E-1,1.5436155E-1,-4.1989893E-2,-1.2222073E-1,2.0464832E-1,4.224723E-3,-1.9433519E-1,-1.905008E-1,3.0170789E-2],"split_indices":[9,1,0,0,9,10,1,10,0,0,2,8,9,0,9,0,0,0,8,0,1,9,11,0,2,0,0,0,0,2,11,9,0,10,0,0,0,0,0,0,0,0,0,0,0],"split_type":[0,0,0,0,0,0,0,0,0,0,0,0,0,0,0,0,0,0,0,0,0,0,0,0,0,0,0,0,0,0,0,0,0,0,0,0,0,0,0,0,0,0,0,0,0],"sum_hessian":[4.5239273E2,9.152715E1,3.6086557E2,7.7548164E1,1.3978985E1,3.156158E2,4.5249763E1,4.7693796E0,7.2778786E1,5.068611E0,8.910374E0,2.8143013E1,2.8747278E2,2.8334274E0,4.2416336E1,2.839329E0,1.9300504E0,1.7035723E0,7.2068014E0,7.6941595E0,2.0448854E1,2.7612436E2,1.134843E1,2.1092029E0,4.0307133E1,1.4932449E0,5.7135563E0,1.6163107E1,4.2857466E0,1.141606E2,1.6196376E2,9.97815E0,1.3702793E0,2.245845E1,1.7848684E1,1.4671146E1,1.4919606E0,7.301132E1,4.1149277E1,3.694261E0,1.582695E2,1.2998483E0,8.678302E0,1.0840111E1,1.1618339E1],"tree_param":{"num_deleted":"0","num_feature":"12","num_nodes":"45","size_leaf_vector":"1"}},{"base_weights":[-4.3546623E-1,-2.0227908E-1,8.574428E-1,-1.409603E-1,9.083289E-1,-1.2189206E-1,9.427211E-1,3.9181784E-1,9.7159255E-1,-1.1729418E-1,2.35193E-1,9.8696107E-1,7.145405E-2,9.364351E-2,2.9977527E-1],"categories":[],"categories_nodes":[],"categories_segments":[],"categories_sizes":[],"default_left":[0,0,0,0,0,0,0,0,0,0,0,0,0,0,0],"id":4,"left_children":[1,-1,3,-1,5,-1,7,9,11,-1,-1,13,-1,-1,-1],"loss_changes":[1.26546104E2,0E0,4.7527657E0,0E0,3.1873856E0,0E0,5.8548737E-1,1.7495652E0,4.0790176E-1,0E0,0E0,1.488266E-1,0E0,0E0,0E0],"parents":[2147483647,0,0,2,2,4,4,6,6,7,7,8,8,11,11],"right_children":[2,-1,4,-1,6,-1,8,10,12,-1,-1,14,-1,-1,-1],"split_conditions":[2.2300715E0,-2.0227908E-1,-1.7218258E0,-1.409603E-1,-1.7587401E-1,-1.2189206E-1,-1.1206241E0,-1.3506383E-1,1.1920809E1,-1.1729418E-1,2.35193E-1,-1.0083414E0,7.145405E-2,9.364351E-2,2.9977527E-1],"split_indices":[5,0,9,0,4,0,9,3,6,0,0,0,0,0,0],"split_type":[0,0,0,0,0,0,0,0,0,0,0,0,0,0,0],"sum_hessian":[4.070024E2,3.439535E2,6.304892E1,2.0239003E0,6.102502E1,1.2800875E0,5.9744934E1,3.7007606E0,5.604417E1,1.2361846E0,2.464576E0,5.455526E1,1.4889102E0,1.4479663E0,5.3107296E1],"tree_param":{"num_deleted":"0","num_feature":"12","num_nodes":"15","size_leaf_vector":"1"}},{"base_weights":[2.4033345E-1,3.2009214E-1,-5.48077E-1,1.2533289E-1,6.038588E-1,-5.8921343E-1,1.218978E-1,7.846963E-1,3.93964E-2,4.8015144E-1,9.581333E-1,-1.9590196E-1,1.4988644E-1,2.8868434E-1,5.5016255E-1,5.254749E-1,-3.708477E-2,7.129916E-1,1.2160594E-1,9.735554E-1,9.193931E-2,-1.3134266E-1,2.1667923E-1,6.374716E-2,8.567418E-1,1.6234337E-1,8.0875206E-1,6.906447E-1,-8.744403E-2,7.6565194E-1,-1.5262276E-1,6.674473E-1,-1.516039E-1,9.5657565E-2,9.883688E-1,-1.6170876E-1,2.3647411E-1,2.8151354E-1,7.961363E-2,1.629851E-1,-1.2745279E-1,2.8577223E-1,9.286967E-2,2.7833143E-1,-1.4380977E-1,1.2749474E-1,-4.6115853E-2,2.4372433E-1,-8.417337E-2,-1.7921424E-2,3.027909E-1,-8.7571114E-2,2.6630518E-1,1.9585484E-1,3.150195E-1],"categories":[],"categories_nodes":[],"categories_segments":[],"categories_sizes":[],"default_left":[0,0,0,0,0,0,0,0,0,0,0,0,0,0,0,0,0,0,0,0,0,0,0,0,0,0,0,0,0,0,0,0,0,0,0,0,0,0,0,0,0,0,0,0,0,0,0,0,0,0,0,0,0,0,0],"id":5,"left_children":[1,3,5,7,9,11,-1,13,15,17,19,-1,21,-1,23,25,27,29,31,33,-1,-1,-1,35,37,39,41,43,45,47,-1,49,51,-1,53,-1,-1,-1,-1,-1,-1,-1,-1,-1,-1,-1,-1,-1,-1,-1,-1,-1,-1,-1,-1],"loss_changes":[2.908325E1,2.303159E1,1.9120111E0,1.4089656E1,6.986389E0,2.0427952E0,0E0,6.651497E-1,8.254678E0,1.0594048E1,1.3348389E-1,0E0,1.692293E0,0E0,2.1366072E0,2.9734344E0,7.109175E0,5.3666687E0,7.792878E0,8.74939E-2,0E0,0E0,0E0,3.3775725E0,1.822176E-1,3.4692626E0,9.0437317E-1,3.9296274E0,6.204753E0,3.8758926E0,0E0,4.3832374E0,5.389897E0,0E0,1.4500046E-1,0E0,0E0,0E0,0E0,0E0,0E0,0E0,0E0,0E0,0E0,0E0,0E0,0E0,0E0,0E0,0E0,0E0,0E0,0E0,0E0],"parents":[2147483647,0,0,1,1,2,2,3,3,4,4,5,5,7,7,8,8,9,9,10,10,12,12,14,14,15,15,16,16,17,17,18,18,19,19,23,23,24,24,25,25,26,26,27,27,28,28,29,29,31,31,32,32,34,34],"right_children":[2,4,6,8,10,12,-1,14,16,18,20,-1,22,-1,24,26,28,30,32,34,-1,-1,-1,36,38,40,42,44,46,48,-1,50,52,-1,54,-1,-1,-1,-1,-1,-1,-1,-1,-1,-1,-1,-1,-1,-1,-1,-1,-1,-1,-1,-1],"split_conditions":[2.3563201E0,-2.130393E-1,1.1761408E1,-1.5337187E-1,9.5814514E-1,1.9241927E0,1.218978E-1,-8.998429E-1,-9.2876184E-1,6.2035717E-2,1.0907402E0,-1.9590196E-1,-9.125014E-1,2.8868434E-1,-1.3504657E-1,1.0507232E0,1.9696845E-1,1.676908E0,7.111379E-1,-1.0636636E0,9.193931E-2,-1.3134266E-1,2.1667923E-1,-4.236446E-1,-3.4246758E-1,2.7391335E-1,-4.4313756E-1,1.3475705E0,-5.066969E-1,1.727622E0,-1.5262276E-1,8.1204164E-1,1.7712891E0,9.5657565E-2,1.1296481E0,-1.6170876E-1,2.3647411E-1,2.8151354E-1,7.961363E-2,1.629851E-1,-1.2745279E-1,2.8577223E-1,9.286967E-2,2.7833143E-1,-1.4380977E-1,1.2749474E-1,-4.6115853E-2,2.4372433E-1,-8.417337E-2,-1.7921424E-2,3.027909E-1,-8.7571114E-2,2.6630518E-1,1.9585484E-1,3.150195E-1],"split_indices":[5,8,7,10,0,8,0,8,1,9,1,0,1,0,2,3,11,1,0,1,0,0,0,0,8,11,8,1,2,4,0,2,2,0,0,0,0,0,0,0,0,0,0,0,0,0,0,0,0,0,0,0,0,0,0],"split_type":[0,0,0,0,0,0,0,0,0,0,0,0,0,0,0,0,0,0,0,0,0,0,0,0,0,0,0,0,0,0,0,0,0,0,0,0,0,0,0,0,0,0,0,0,0,0,0,0,0,0,0,0,0,0,0],"sum_hessian":[4.5871097E2,4.1710864E2,4.1602337E1,2.4820105E2,1.689076E2,4.0250122E1,1.3522143E0,2.7681162E1,2.2051988E2,1.2693802E2,4.1969574E1,3.715932E1,3.0908036E0,1.3987281E1,1.369388E1,2.9182014E1,1.9133786E2,7.636067E1,5.0577347E1,4.051678E1,1.4527932E0,1.6409965E0,1.4498072E0,5.761181E0,7.932699E0,1.347788E1,1.5704136E1,1.1560826E1,1.7977704E2,7.356319E1,2.7974832E0,1.6389685E1,3.418766E1,1.3948481E0,3.9121933E1,3.2845051E0,2.4766757E0,6.4548173E0,1.4778819E0,8.219924E0,5.2579556E0,1.148648E1,4.2176557E0,9.78478E0,1.776047E0,1.9969002E1,1.5980804E2,7.062979E1,2.9333944E0,5.504955E0,1.0884729E1,3.075499E1,3.4326725E0,7.8753633E0,3.124657E1],"tree_param":{"num_deleted":"0","num_feature":"12","num_nodes":"55","size_leaf_vector":"1"}},{"base_weights":[1.2088532E-1,-4.420416E-1,2.457752E-1,-5.6992525E-1,1.8557863E-1,2.9396453E-1,-5.033996E-1,4.9594406E-2,-1.8479016E-1,-1.5519634E-1,5.4859155E-1,3.2351544E-1,-1.796317E-1,-5.771535E-1,6.703352E-2,-1.4509365E-1,2.0046325E-1,6.751369E-2,7.583331E-1,3.5372442E-1,-3.795894E-1,-7.775329E-3,-1.8387137E-1,-1.4669569E-1,1.9417518E-1,2.566068E-1,6.791822E-2,-3.892457E-1,3.8121572E-1,-5.568626E-1,1.6429713E-1,2.3087354E-1,-2.0945552E-1,-8.709318E-2,1.2338615E-1,-4.801218E-2,-1.8639672E-1],"categories":[],"categories_nodes":[],"categories_segments":[],"categories_sizes":[],"default_left":[0,0,0,0,0,0,0,0,0,0,0,0,0,0,0,0,0,0,0,0,0,0,0,0,0,0,0,0,0,0,0,0,0,0,0,0,0],"id":6,"left_children":[1,3,5,7,9,11,13,15,-1,-1,17,19,-1,21,-1,-1,-1,23,25,27,29,-1,-1,-1,-1,-1,-1,31,33,35,-1,-1,-1,-1,-1,-1,-1],"loss_changes":[3.0787466E1,6.493984E0,1.3064743E1,1.9235363E0,3.9139328E0,9.078663E0,1.3078785E0,2.1428943E0,0E0,0E0,9.444003E-1,7.0723305E0,0E0,3.8308334E-1,0E0,0E0,0E0,1.6371444E0,1.5593433E-1,6.555996E0,2.5961623E0,0E0,0E0,0E0,0E0,0E0,0E0,4.721862E0,6.238552E0,2.1256208E-1,0E0,0E0,0E0,0E0,0E0,0E0,0E0],"parents":[2147483647,0,0,1,1,2,2,3,3,4,4,5,5,6,6,7,7,10,10,11,11,13,13,17,17,18,18,19,19,20,20,27,27,28,28,29,29],"right_children":[2,4,6,8,10,12,14,16,-1,-1,18,20,-1,22,-1,-1,-1,24,26,28,30,-1,-1,-1,-1,-1,-1,32,34,36,-1,-1,-1,-1,-1,-1,-1],"split_conditions":[-2.5908792E-1,4.1255763E-1,1.1296481E0,-5.637075E-1,-1.7218258E0,-6.448785E-4,1.0907402E0,1.1523593E-1,-1.8479016E-1,-1.5519634E-1,-1.6380935E0,8.8843817E-1,-1.796317E-1,-9.5211643E-1,6.703352E-2,-1.4509365E-1,2.0046325E-1,-2.6657373E-1,2.5212204E0,-1.7650471E0,3.516537E-1,-7.775329E-3,-1.8387137E-1,-1.4669569E-1,1.9417518E-1,2.566068E-1,6.791822E-2,5.23232E-1,-1.1252211E0,9.310095E-1,1.6429713E-1,2.3087354E-1,-2.0945552E-1,-8.709318E-2,1.2338615E-1,-4.801218E-2,-1.8639672E-1],"split_indices":[9,1,0,0,9,4,1,10,0,0,0,9,0,1,0,0,0,2,8,0,11,0,0,0,0,0,0,1,1,9,0,0,0,0,0,0,0],"split_type":[0,0,0,0,0,0,0,0,0,0,0,0,0,0,0,0,0,0,0,0,0,0,0,0,0,0,0,0,0,0,0,0,0,0,0,0,0],"sum_hessian":[4.3537454E2,7.8591736E1,3.567828E2,6.536494E1,1.3226803E1,3.3579123E2,2.0991562E1,4.516452E0,6.0848484E1,4.3598247E0,8.866979E0,3.2564938E2,1.0141862E1,1.924472E1,1.7468418E0,2.5427845E0,1.9736674E0,3.0934696E0,5.7735085E0,3.1271063E2,1.2938736E1,1.2771802E0,1.7967539E1,1.6582379E0,1.4352318E0,4.3686876E0,1.404821E0,1.0688492E1,3.0202216E2,1.119743E1,1.7413064E0,1.9359088E0,8.752583E0,1.2574151E1,2.89448E2,2.0514238E0,9.146006E0],"tree_param":{"num_deleted":"0","num_feature":"12","num_nodes":"37","size_leaf_vector":"1"}},{"base_weights":[-4.0102357E-1,-1.884999E-1,6.8280566E-1,-1.2708606E-1,7.23112E-1,-1.1228148E-1,7.5173724E-1,3.080882E-1,7.751784E-1,-1.09754466E-1,1.925972E-1,7.882137E-1,5.4151822E-2,1.4188538E-1,2.490671E-1],"categories":[],"categories_nodes":[],"categories_segments":[],"categories_sizes":[],"default_left":[0,0,0,0,0,0,0,0,0,0,0,0,0,0,0],"id":7,"left_children":[1,-1,3,-1,5,-1,7,9,11,-1,-1,13,-1,-1,-1],"loss_changes":[8.744234E1,0E0,3.0583801E0,0E0,2.1633415E0,0E0,3.7184525E-1,1.2714695E0,2.8495407E-1,0E0,0E0,3.1769562E-1,0E0,0E0,0E0],"parents":[2147483647,0,0,2,2,4,4,6,6,7,7,8,8,11,11],"right_children":[2,-1,4,-1,6,-1,8,10,12,-1,-1,14,-1,-1,-1],"split_conditions":[2.2300715E0,-1.884999E-1,-1.7218258E0,-1.2708606E-1,-1.7587401E-1,-1.1228148E-1,-1.1206241E0,-1.3506383E-1,1.1920809E1,-1.09754466E-1,1.925972E-1,9.753572E-2,5.4151822E-2,1.4188538E-1,2.490671E-1],"split_indices":[5,0,9,0,4,0,9,3,6,0,0,4,0,0,0],"split_type":[0,0,0,0,0,0,0,0,0,0,0,0,0,0,0],"sum_hessian":[3.5218918E2,2.9147827E2,6.071091E1,1.7996527E0,5.891126E1,1.1906699E0,5.772059E1,3.6065109E0,5.411408E1,1.1631589E0,2.443352E0,5.2634857E1,1.4792196E0,7.6304545E0,4.5004402E1],"tree_param":{"num_deleted":"0","num_feature":"12","num_nodes":"15","size_leaf_vector":"1"}},{"base_weights":[2.0043653E-1,2.6070604E-1,-4.8838127E-1,1.09270744E-1,4.9007472E-1,-5.329449E-1,1.0950903E-1,3.0588388E-1,-1.5371719E-1,2.4869852E-1,3.685749E-1,-1.8045987E-1,1.5619202E-1,7.133097E-2,7.177019E-1,4.2601213E-1,-2.6713845E-1,1.773467E-1,7.671429E-1,-1.16422996E-1,1.88507E-1,6.9628036E-1,-3.1585008E-1,8.835243E-1,4.3273202E-1,7.649742E-1,2.829013E-2,6.128633E-1,-3.5576394E-1,-1.7036025E-1,3.9315486E-1,8.2583463E-1,6.2085737E-2,2.24483E-1,-1.2348094E-1,2.0270537E-1,-1.4488205E-1,3.575283E-2,2.9538178E-1,-9.772725E-2,2.0834109E-1,2.4518794E-1,7.60723E-2,-1.1164298E-1,9.6112154E-2,2.815262E-1,-1.349396E-1,1.5686163E-1,-1.2165618E-1,1.4900541E-1,-1.4443335E-1,-9.617441E-2,1.4190729E-1,2.57679E-1,-9.284939E-3,1.6851611E-1,-1.2986772E-1],"categories":[],"categories_nodes":[],"categories_segments":[],"categories_sizes":[],"default_left":[0,0,0,0,0,0,0,0,0,0,0,0,0,0,0,0,0,0,0,0,0,0,0,0,0,0,0,0,0,0,0,0,0,0,0,0,0,0,0,0,0,0,0,0,0,0,0,0,0,0,0,0,0,0,0,0,0],"id":8,"left_children":[1,3,5,7,9,11,-1,13,15,-1,17,-1,19,21,23,25,27,29,31,-1,-1,33,35,37,39,41,43,45,47,49,51,53,55,-1,-1,-1,-1,-1,-1,-1,-1,-1,-1,-1,-1,-1,-1,-1,-1,-1,-1,-1,-1,-1,-1,-1,-1],"loss_changes":[1.8537504E1,1.4133196E1,1.5647173E0,1.283402E1,6.3710136E0,1.7315645E0,0E0,1.3649627E1,7.1137576E0,0E0,9.097736E0,0E0,1.2537967E0,2.235527E1,2.0446682E0,2.3787205E0,7.2100577E0,6.307956E0,1.5617466E0,0E0,0E0,2.3418827E0,9.7985325E0,2.316986E0,4.3660135E0,4.892397E-2,1.1988703E0,3.3869872E0,3.800497E0,6.993373E0,3.0943599E0,1.0446262E0,1.25138E0,0E0,0E0,0E0,0E0,0E0,0E0,0E0,0E0,0E0,0E0,0E0,0E0,0E0,0E0,0E0,0E0,0E0,0E0,0E0,0E0,0E0,0E0,0E0,0E0],"parents":[2147483647,0,0,1,1,2,2,3,3,4,4,5,5,7,7,8,8,10,10,12,12,13,13,14,14,15,15,16,16,17,17,18,18,21,21,22,22,23,23,24,24,25,25,26,26,27,27,28,28,29,29,30,30,31,31,32,32],"right_children":[2,4,6,8,10,12,-1,14,16,-1,18,-1,20,22,24,26,28,30,32,-1,-1,34,36,38,40,42,44,46,48,50,52,54,56,-1,-1,-1,-1,-1,-1,-1,-1,-1,-1,-1,-1,-1,-1,-1,-1,-1,-1,-1,-1,-1,-1,-1,-1],"split_conditions":[2.3563201E0,4.735983E-1,1.1761408E1,1.6909899E-1,-1.9727063E-1,1.9241927E0,1.0950903E-1,-1.0122867E-1,-9.222672E-1,2.4869852E-1,6.901777E-1,-1.8045987E-1,-9.125014E-1,-4.8884702E-1,-3.3802566E-1,-4.9966332E-1,-1.2595978E0,-9.2774755E-1,1.1717669E0,-1.16422996E-1,1.88507E-1,3.3862019E0,-9.05152E-1,3.8319024E-1,-3.9214167E-1,3.3709055E-1,7.332788E-1,-7.6331876E-2,1.8675523E-1,-1.1030047E0,-6.1076534E-1,-8.1350017E-1,-9.318214E-1,2.24483E-1,-1.2348094E-1,2.0270537E-1,-1.4488205E-1,3.575283E-2,2.9538178E-1,-9.772725E-2,2.0834109E-1,2.4518794E-1,7.60723E-2,-1.1164298E-1,9.6112154E-2,2.815262E-1,-1.349396E-1,1.5686163E-1,-1.2165618E-1,1.4900541E-1,-1.4443335E-1,-9.617441E-2,1.4190729E-1,2.57679E-1,-9.284939E-3,1.6851611E-1,-1.2986772E-1],"split_indices":[5,0,7,9,9,8,0,2,1,0,9,0,1,2,0,8,0,1,3,0,0,4,8,1,8,11,2,3,11,1,8,1,1,0,0,0,0,0,0,0,0,0,0,0,0,0,0,0,0,0,0,0,0,0,0,0,0],"split_type":[0,0,0,0,0,0,0,0,0,0,0,0,0,0,0,0,0,0,0,0,0,0,0,0,0,0,0,0,0,0,0,0,0,0,0,0,0,0,0,0,0,0,0,0,0,0,0,0,0,0,0,0,0,0,0,0,0],"sum_hessian":[4.4246155E2,4.074338E2,3.5027733E1,2.4629784E2,1.6113599E2,3.3646294E1,1.3814394E0,1.4084055E2,1.054573E2,4.0985397E1,1.2015058E2,3.0716303E1,2.9299898E0,9.048028E1,5.0360264E1,1.6805164E1,8.865213E1,8.217092E1,3.7979664E1,1.4437993E0,1.4861906E0,3.430699E1,5.6173286E1,3.050763E1,1.9852634E1,8.574274E0,8.230889E0,7.5700946E0,8.108204E1,3.1549467E1,5.0621452E1,3.490291E1,3.0767572E0,3.307908E1,1.2279117E0,7.662018E0,4.851127E1,3.8177774E0,2.6689852E1,5.030421E0,1.4822212E1,7.235858E0,1.3384161E0,3.3559449E0,4.8749447E0,5.884296E0,1.6857988E0,3.835937E0,7.72461E1,9.844243E0,2.1705225E1,4.7912893E0,4.5830162E1,3.3602432E1,1.3004744E0,1.4640725E0,1.6126847E0],"tree_param":{"num_deleted":"0","num_feature":"12","num_nodes":"57","size_leaf_vector":"1"}},{"base_weights":[1.0033686E-1,-4.0637892E-1,1.9543119E-1,-5.4102874E-1,1.6116168E-1,2.3266995E-1,-4.5734695E-1,-2.2521833E-2,-1.7374009E-1,-1.4569871E-1,4.7362942E-1,2.546638E-1,-1.6468777E-1,-5.3580946E-1,5.88699E-2,-1.33375E-1,1.6321287E-1,5.6981083E-2,6.496591E-1,-8.994268E-2,3.0042508E-1,-1.3021955E-2,-1.7158265E-1,-1.3201992E-1,1.6410369E-1,2.1843539E-1,5.888038E-2,-4.261163E-1,2.8085E-1,5.6538993E-1,1.8687886E-1,-1.7974749E-1,-2.1101037E-2,-1.8889856E-2,1.5794893E-1,-3.36674E-2,1.8582393E-1,-9.056434E-2,9.305253E-2],"categories":[],"categories_nodes":[],"categories_segments":[],"categories_sizes":[],"default_left":[0,0,0,0,0,0,0,0,0,0,0,0,0,0,0,0,0,0,0,0,0,0,0,0,0,0,0,0,0,0,0,0,0,0,0,0,0,0,0],"id":9,"left_children":[1,3,5,7,9,11,13,15,-1,-1,17,19,-1,21,-1,-1,-1,23,25,27,29,-1,-1,-1,-1,-1,-1,31,33,35,37,-1,-1,-1,-1,-1,-1,-1,-1],"loss_changes":[1.992184E1,5.0844936E0,8.551153E0,1.0357552E0,2.9201474E0,5.800995E0,1.0838737E0,1.359654E0,0E0,0E0,6.58334E-1,5.0887833E0,0E0,2.8311348E-1,0E0,0E0,0E0,1.1935718E0,9.0765E-2,4.9058895E0,8.426195E0,0E0,0E0,0E0,0E0,0E0,0E0,1.2221448E0,1.6261092E0,3.1655903E0,1.2146581E1,0E0,0E0,0E0,0E0,0E0,0E0,0E0,0E0],"parents":[2147483647,0,0,1,1,2,2,3,3,4,4,5,5,6,6,7,7,10,10,11,11,13,13,17,17,18,18,19,19,20,20,27,27,28,28,29,29,30,30],"right_children":[2,4,6,8,10,12,14,16,-1,-1,18,20,-1,22,-1,-1,-1,24,26,28,30,-1,-1,-1,-1,-1,-1,32,34,36,38,-1,-1,-1,-1,-1,-1,-1,-1],"split_conditions":[-2.6459417E-1,4.1255763E-1,1.1296481E0,-5.637075E-1,-1.7218258E0,-6.448785E-4,1.0907402E0,1.1523593E-1,-1.7374009E-1,-1.4569871E-1,-1.6380935E0,-4.2792636E-1,-1.6468777E-1,-9.5211643E-1,5.88699E-2,-1.33375E-1,1.6321287E-1,-2.6657373E-1,2.5212204E0,1.6002792E-1,-9.609711E-2,-1.3021955E-2,-1.7158265E-1,-1.3201992E-1,1.6410369E-1,2.1843539E-1,5.888038E-2,-1.0285843E-1,5.5810988E-2,-1.0973213E0,1.16513245E-1,-1.7974749E-1,-2.1101037E-2,-1.8889856E-2,1.5794893E-1,-3.36674E-2,1.8582393E-1,-9.056434E-2,9.305253E-2],"split_indices":[9,1,0,0,9,4,1,10,0,0,0,2,0,1,0,0,0,2,8,9,2,0,0,0,0,0,0,3,10,1,9,0,0,0,0,0,0,0,0],"split_type":[0,0,0,0,0,0,0,0,0,0,0,0,0,0,0,0,0,0,0,0,0,0,0,0,0,0,0,0,0,0,0,0,0,0,0,0,0,0,0],"sum_hessian":[4.107898E2,6.439323E1,3.4639658E2,5.208314E1,1.2310087E1,3.283111E2,1.8085457E1,3.6744618E0,4.840868E1,3.8291903E0,8.480897E0,3.199815E2,8.3296E0,1.6307884E1,1.7775738E0,2.2291558E0,1.445306E0,2.912037E0,5.56886E0,3.739701E1,2.825845E2,1.2653587E0,1.5042524E1,1.4962877E0,1.4157492E0,4.2307887E0,1.3380711E0,1.9535887E1,1.7861124E1,8.357631E1,1.9900818E2,1.2683088E1,6.8527985E0,7.7531657E0,1.0107958E1,6.0916133E0,7.7484695E1,3.9797604E1,1.5921057E2],"tree_param":{"num_deleted":"0","num_feature":"12","num_nodes":"39","size_leaf_vector":"1"}},{"base_weights":[-3.7969396E-1,-1.7884368E-1,5.809721E-1,-1.13614865E-1,6.15538E-1,-1.0299831E-1,6.418204E-1,6.535969E-1,3.9374784E-2,2.7344367E-1,6.763061E-1,-1.1492721E-1,1.8377453E-1,2.0664835E-1,4.9139496E-2],"categories":[],"categories_nodes":[],"categories_segments":[],"categories_sizes":[],"default_left":[0,0,0,0,0,0,0,0,0,0,0,0,0,0,0],"id":10,"left_children":[1,-1,3,-1,5,-1,7,9,-1,11,13,-1,-1,-1,-1],"loss_changes":[6.2506607E1,0E0,2.0733871E0,0E0,1.5794067E0,0E0,2.3191833E-1,2.5876236E-1,0E0,1.2535223E0,1.9405174E-1,0E0,0E0,0E0,0E0],"parents":[2147483647,0,0,2,2,4,4,6,6,7,7,9,9,10,10],"right_children":[2,-1,4,-1,6,-1,8,10,-1,12,14,-1,-1,-1,-1],"split_conditions":[2.2300715E0,-1.7884368E-1,-1.7218258E0,-1.13614865E-1,-1.7587401E-1,-1.0299831E-1,1.1920809E1,-4.012885E-1,3.9374784E-2,-8.6282074E-1,1.3024697E0,-1.1492721E-1,1.8377453E-1,2.0664835E-1,4.9139496E-2],"split_indices":[5,0,9,0,4,0,6,8,0,1,0,0,0,0,0],"split_type":[0,0,0,0,0,0,0,0,0,0,0,0,0,0,0],"sum_hessian":[2.9793695E2,2.4346117E2,5.447579E1,1.5477487E0,5.292804E1,1.0902224E0,5.183782E1,5.0395306E1,1.4425118E0,3.5758889E0,4.6819416E1,1.1738474E0,2.4020414E0,4.5366966E1,1.4524508E0],"tree_param":{"num_deleted":"0","num_feature":"12","num_nodes":"15","size_leaf_vector":"1"}},{"base_weights":[1.7324951E-1,2.2693028E-1,-3.795101E-1,9.6841335E-2,4.166575E-1,3.2944715E-1,-4.85486E-1,5.6728536E-1,3.6635354E-2,5.826523E-1,2.8864387E-1,1.8243596E-1,-1.0462521E-1,-5.320085E-1,9.8883316E-2,4.1310778E-1,6.5355676E-1,3.582873E-1,-2.2345506E-2,6.851546E-1,3.8694553E-2,1.7470816E-1,6.672791E-1,-1.7367345E-1,9.157078E-2,2.0710237E-1,-2.3307994E-1,2.0875667E-1,4.6871543E-2,7.264736E-1,-4.34514E-2,-3.7125745E-1,1.1473402E-1,3.2079425E-1,2.1180461E-1,5.2107507E-1,-4.1801545E-1,4.562869E-1,-9.158577E-2,2.0833166E-1,5.817723E-2,-1.3436969E-1,5.5278096E-2,2.6800272E-1,4.9698155E-2,1.4003353E-1,-1.0318305E-1,-1.2995307E-1,1.7914057E-1,1.7852229E-1,-1.8316995E-2,-7.061728E-2,1.8609951E-1,3.0721411E-2,1.8710615E-1,-1.4848997E-2,-1.7466764E-1,-1.3815957E-1,1.7020456E-1,-5.6770127E-2,1.8923384E-1],"categories":[],"categories_nodes":[],"categories_segments":[],"categories_sizes":[],"default_left":[0,0,0,0,0,0,0,0,0,0,0,0,0,0,0,0,0,0,0,0,0,0,0,0,0,0,0,0,0,0,0,0,0,0,0,0,0,0,0,0,0,0,0,0,0,0,0,0,0,0,0,0,0,0,0,0,0,0,0,0,0],"id":11,"left_children":[1,3,5,7,9,11,13,15,17,19,21,-1,-1,23,-1,25,27,29,31,33,35,37,39,-1,-1,-1,41,-1,-1,43,45,47,49,51,-1,53,55,57,59,-1,-1,-1,-1,-1,-1,-1,-1,-1,-1,-1,-1,-1,-1,-1,-1,-1,-1,-1,-1,-1,-1],"loss_changes":[1.2449617E1,9.34865E0,2.9591045E0,6.407961E0,3.113449E0,1.240339E0,1.4197407E0,7.162285E-2,3.8457577E0,3.6679096E0,3.7303538E0,0E0,0E0,1.4107971E0,0E0,2.2986252E0,2.015605E-1,4.6768084E0,8.26375E0,1.9683456E-1,2.7658806E0,5.2831783E0,1.2594986E-1,0E0,0E0,0E0,4.7073853E-1,0E0,0E0,1.3907948E0,2.6077948E0,3.179967E0,1.0521046E1,9.5380604E-1,0E0,1.9690287E-1,3.6427808E-1,3.7378125E0,2.7122216E0,0E0,0E0,0E0,0E0,0E0,0E0,0E0,0E0,0E0,0E0,0E0,0E0,0E0,0E0,0E0,0E0,0E0,0E0,0E0,0E0,0E0,0E0],"parents":[2147483647,0,0,1,1,2,2,3,3,4,4,5,5,6,6,7,7,8,8,9,9,10,10,13,13,15,15,16,16,17,17,18,18,19,19,20,20,21,21,22,22,26,26,29,29,30,30,31,31,32,32,33,33,35,35,36,36,37,37,38,38],"right_children":[2,4,6,8,10,12,14,16,18,20,22,-1,-1,24,-1,26,28,30,32,34,36,38,40,-1,-1,-1,42,-1,-1,44,46,48,50,52,-1,54,56,58,60,-1,-1,-1,-1,-1,-1,-1,-1,-1,-1,-1,-1,-1,-1,-1,-1,-1,-1,-1,-1,-1,-1],"split_conditions":[2.241873E0,-2.4723585E-1,-1.1206241E0,-1.2280241E-1,-1.1479265E-1,-8.6759186E-1,1.1761408E1,-1.3504657E-1,-4.0504977E-1,6.7795527E-1,1.1296481E0,1.8243596E-1,-1.0462521E-1,1.4845346E0,9.8883316E-2,-5.0146645E-1,-3.4246758E-1,1.6002792E-1,-1.3504657E-1,-1.3958658E-1,-1.6929789E0,7.262036E-1,1.0907402E0,-1.7367345E-1,9.157078E-2,2.0710237E-1,8.0393386E-1,2.0875667E-1,4.6871543E-2,-1.0285843E-1,-9.037695E-1,5.977793E-1,-8.432624E-2,-9.932462E-2,2.1180461E-1,1.3243827E0,-1.1592486E-1,1.7457746E-1,1.7712891E0,2.0833166E-1,5.817723E-2,-1.3436969E-1,5.5278096E-2,2.6800272E-1,4.9698155E-2,1.4003353E-1,-1.0318305E-1,-1.2995307E-1,1.7914057E-1,1.7852229E-1,-1.8316995E-2,-7.061728E-2,1.8609951E-1,3.0721411E-2,1.8710615E-1,-1.4848997E-2,-1.7466764E-1,-1.3815957E-1,1.7020456E-1,-5.6770127E-2,1.8923384E-1],"split_indices":[5,8,9,10,9,2,7,2,2,1,0,0,0,0,0,2,8,9,2,8,9,0,1,0,0,0,1,0,0,3,1,10,3,3,0,1,3,0,2,0,0,0,0,0,0,0,0,0,0,0,0,0,0,0,0,0,0,0,0,0,0],"split_type":[0,0,0,0,0,0,0,0,0,0,0,0,0,0,0,0,0,0,0,0,0,0,0,0,0,0,0,0,0,0,0,0,0,0,0,0,0,0,0,0,0,0,0,0,0,0,0,0,0,0,0,0,0,0,0,0,0,0,0,0,0],"sum_hessian":[4.1566418E2,3.7940778E2,3.62564E1,2.259753E2,1.534325E2,4.4406505E0,3.1815748E1,2.4682907E1,2.0129239E2,6.525941E1,8.817308E1,3.220621E0,1.220029E0,3.0426435E1,1.3893144E0,1.0932915E1,1.3749991E1,3.0404871E1,1.7088751E2,5.4693497E1,1.0565911E1,6.8901306E1,1.9271778E1,2.9104532E1,1.3219017E0,7.602773E0,3.3301415E0,1.2304253E1,1.445739E0,1.5443165E1,1.4961707E1,4.771895E1,1.2316857E2,3.8487017E0,5.084479E1,5.0700035E0,5.495908E0,3.314275E1,3.5758556E1,1.7784311E1,1.4874661E0,2.1501598E0,1.1799818E0,1.1444837E1,3.9983282E0,5.3404117E0,9.621296E0,4.5370613E1,2.3483324E0,3.236031E1,9.080826E1,1.4221628E0,2.426539E0,1.3913E0,3.6787035E0,2.0952306E0,3.4006774E0,3.241056E0,2.9901693E1,3.2150543E1,3.6080143E0],"tree_param":{"num_deleted":"0","num_feature":"12","num_nodes":"61","size_leaf_vector":"1"}},{"base_weights":[8.560604E-2,-3.7407556E-1,1.600941E-1,-5.0990236E-1,1.3476422E-1,1.8909208E-1,-4.1249776E-1,-9.12066E-3,-1.6565272E-1,-1.3429378E-1,3.9458808E-1,2.0620732E-1,-1.5351316E-1,-4.9567947E-1,4.951804E-2,-1.2306656E-1,1.4936487E-1,2.7769264E-2,5.5245703E-1,2.3062824E-1,-3.2607943E-1,-4.0784087E-3,-1.6173834E-1,-1.2824713E-1,1.4578919E-1,1.8957314E-1,4.1541383E-2,8.72434E-2,3.15054E-1,-5.2756286E-1,1.4515693E-1,7.100699E-2,-8.211023E-2,-9.996345E-2,1.0503147E-1,-1.7640865E-1,-6.679427E-2],"categories":[],"categories_nodes":[],"categories_segments":[],"categories_sizes":[],"default_left":[0,0,0,0,0,0,0,0,0,0,0,0,0,0,0,0,0,0,0,0,0,0,0,0,0,0,0,0,0,0,0,0,0,0,0,0,0],"id":12,"left_children":[1,3,5,7,9,11,13,15,-1,-1,17,19,-1,21,-1,-1,-1,23,25,27,29,-1,-1,-1,-1,-1,-1,31,33,35,-1,-1,-1,-1,-1,-1,-1],"loss_changes":[1.3200865E1,3.7882056E0,5.5733433E0,8.98633E-1,2.0121593E0,3.8921175E0,8.6334777E-1,1.0867617E0,0E0,0E0,5.0116897E-1,4.0903597E0,0E0,2.9574442E-1,0E0,0E0,0E0,9.871863E-1,1.15864396E-1,3.5547333E0,2.5340261E0,0E0,0E0,0E0,0E0,0E0,0E0,6.0550103E0,4.3400497E0,8.406377E-2,0E0,0E0,0E0,0E0,0E0,0E0,0E0],"parents":[2147483647,0,0,1,1,2,2,3,3,4,4,5,5,6,6,7,7,10,10,11,11,13,13,17,17,18,18,19,19,20,20,27,27,28,28,29,29],"right_children":[2,4,6,8,10,12,14,16,-1,-1,18,20,-1,22,-1,-1,-1,24,26,28,30,-1,-1,-1,-1,-1,-1,32,34,36,-1,-1,-1,-1,-1,-1,-1],"split_conditions":[-2.6459417E-1,4.1255763E-1,1.1296481E0,-5.637075E-1,-1.7218258E0,-6.448785E-4,1.0907402E0,1.1523593E-1,-1.6565272E-1,-1.3429378E-1,-1.6380935E0,8.789382E-1,-1.5351316E-1,-9.5211643E-1,4.951804E-2,-1.2306656E-1,1.4936487E-1,-2.6657373E-1,-2.2864228E-1,1.3424379E-1,-8.9375925E-1,-4.0784087E-3,-1.6173834E-1,-1.2824713E-1,1.4578919E-1,1.8957314E-1,4.1541383E-2,-1.0430753E-2,-1.2595978E0,3.1956527E-1,1.4515693E-1,7.100699E-2,-8.211023E-2,-9.996345E-2,1.0503147E-1,-1.7640865E-1,-6.679427E-2],"split_indices":[9,1,0,0,9,4,1,10,0,0,0,9,0,1,0,0,0,2,2,9,1,0,0,0,0,0,0,2,0,11,0,0,0,0,0,0,0],"split_type":[0,0,0,0,0,0,0,0,0,0,0,0,0,0,0,0,0,0,0,0,0,0,0,0,0,0,0,0,0,0,0,0,0,0,0,0,0],"sum_hessian":[3.827814E2,5.2816658E1,3.2996475E2,4.1686905E1,1.1129754E1,3.1469717E2,1.5267572E1,3.339695E0,3.834721E1,3.2104545E0,7.9193E0,3.078837E2,6.8134837E0,1.3469429E1,1.798143E0,1.9711591E0,1.368536E0,2.7365794E0,5.1827207E0,2.9491974E2,1.2963972E1,1.2221247E0,1.2247304E1,1.4062995E0,1.3302798E0,3.9065561E0,1.2761645E0,1.10049706E2,1.8487003E2,1.0660622E1,2.30335E0,7.80697E1,3.198E1,9.046607E0,1.7582341E2,8.121581E0,2.5390406E0],"tree_param":{"num_deleted":"0","num_feature":"12","num_nodes":"37","size_leaf_vector":"1"}},{"base_weights":[-3.6834925E-1,-1.7209402E-1,5.087957E-1,5.483058E-1,-1.2347273E-1,-8.1030086E-2,5.809467E-1,-1.143148E-1,7.890592E-2,6.0254496E-1,-2.9594855E-2,8.965414E-2,6.306535E-1,-1.04882985E-1,1.323641E-1,1.3321362E-2,1.9356261E-1],"categories":[],"categories_nodes":[],"categories_segments":[],"categories_sizes":[],"default_left":[0,0,0,0,0,0,0,0,0,0,0,0,0,0,0,0,0],"id":13,"left_children":[1,-1,3,5,-1,7,9,-1,-1,11,-1,13,15,-1,-1,-1,-1],"loss_changes":[4.5233994E1,0E0,1.9662104E0,9.986439E-1,0E0,4.2657867E-1,7.076473E-1,0E0,0E0,5.6253433E-1,0E0,6.788166E-1,3.1731606E-1,0E0,0E0,0E0,0E0],"parents":[2147483647,0,0,2,2,3,3,5,5,6,6,9,9,11,11,12,12],"right_children":[2,-1,4,6,-1,8,10,-1,-1,12,-1,14,16,-1,-1,-1,-1],"split_conditions":[-1.7587401E-1,-1.7209402E-1,2.2094388E0,-1.0083414E0,-1.2347273E-1,2.2993627E0,1.1761408E1,-1.143148E-1,7.890592E-2,-4.012885E-1,-2.9594855E-2,-8.6282074E-1,2.241873E0,-1.04882985E-1,1.323641E-1,1.3321362E-2,1.9356261E-1],"split_indices":[4,0,8,0,0,4,7,0,0,8,0,1,5,0,0,0,0],"split_type":[0,0,0,0,0,0,0,0,0,0,0,0,0,0,0,0,0],"sum_hessian":[2.4857361E2,2.017092E2,4.6864414E1,4.532302E1,1.5413902E0,2.1616967E0,4.3161327E1,1.097292E0,1.0644047E0,4.194175E1,1.2195766E0,2.3968306E0,3.9544918E1,1.0679728E0,1.3288579E0,1.0561544E0,3.8488766E1],"tree_param":{"num_deleted":"0","num_feature":"12","num_nodes":"17","size_leaf_vector":"1"}},{"base_weights":[1.5254743E-1,1.9488654E-1,-3.4198153E-1,8.89197E-2,3.612228E-1,2.9115784E-1,-4.453265E-1,2.4737062E-1,-1.1210367E-1,2.6080775E-1,6.260275E-1,1.5983514E-1,-9.320439E-2,-4.9725652E-1,9.0138346E-2,7.281106E-2,5.213758E-1,1.4178005E-1,-2.9405633E-1,1.8958554E-1,1.08565606E-1,6.609734E-1,9.8823614E-2,-1.6488975E-1,8.009818E-2,5.177446E-1,-2.4888238E-1,6.4704096E-1,2.8758025E-1,-1.9890206E-1,4.1816863E-1,3.9039102E-1,-4.4401398E-1,-1.6175121E-1,2.8855008E-1,8.2935137E-1,5.195955E-1,1.407864E-1,-1.07598014E-1,1.7466916E-1,-3.4023628E-2,1.6240019E-1,-1.2479315E-1,9.947807E-4,2.2204556E-1,-9.720328E-2,1.6145472E-1,8.570364E-2,-1.5583213E-1,1.5469137E-1,-1.4735076E-1,1.5204467E-1,-1.0218649E-1,-1.5701096E-1,-4.8621457E-2,1.02292E-1,-1.2768643E-1,-8.7290704E-2,1.07758485E-1,1.4506364E-1,3.0562502E-1,2.0996794E-1,-3.5739355E-2],"categories":[],"categories_nodes":[],"categories_segments":[],"categories_sizes":[],"default_left":[0,0,0,0,0,0,0,0,0,0,0,0,0,0,0,0,0,0,0,0,0,0,0,0,0,0,0,0,0,0,0,0,0,0,0,0,0,0,0,0,0,0,0,0,0,0,0,0,0,0,0,0,0,0,0,0,0,0,0,0,0,0,0],"id":14,"left_children":[1,3,5,7,9,11,13,15,17,19,21,-1,-1,23,-1,25,27,29,31,-1,33,35,37,-1,-1,39,41,43,45,47,49,51,53,55,57,59,61,-1,-1,-1,-1,-1,-1,-1,-1,-1,-1,-1,-1,-1,-1,-1,-1,-1,-1,-1,-1,-1,-1,-1,-1,-1,-1],"loss_changes":[8.175161E0,6.2667685E0,2.151758E0,7.0231514E0,3.5258904E0,8.840699E-1,1.1936402E0,5.8512206E0,4.5453873E0,5.7122207E0,6.243086E-1,0E0,0E0,1.1708417E0,0E0,1.1060461E1,1.2168932E0,3.9791856E0,6.035751E0,0E0,3.635145E0,4.0055656E-1,7.6196265E-1,0E0,0E0,1.3836336E0,6.167192E0,1.8111792E0,3.0088868E0,3.1322591E0,2.3065224E0,1.0915531E0,9.739075E-1,4.1408215E0,1.9318943E0,4.416628E-1,2.5782552E0,0E0,0E0,0E0,0E0,0E0,0E0,0E0,0E0,0E0,0E0,0E0,0E0,0E0,0E0,0E0,0E0,0E0,0E0,0E0,0E0,0E0,0E0,0E0,0E0,0E0,0E0],"parents":[2147483647,0,0,1,1,2,2,3,3,4,4,5,5,6,6,7,7,8,8,9,9,10,10,13,13,15,15,16,16,17,17,18,18,20,20,21,21,22,22,25,25,26,26,27,27,28,28,29,29,30,30,31,31,32,32,33,33,34,34,35,35,36,36],"right_children":[2,4,6,8,10,12,14,16,18,20,22,-1,-1,24,-1,26,28,30,32,-1,34,36,38,-1,-1,40,42,44,46,48,50,52,54,56,58,60,62,-1,-1,-1,-1,-1,-1,-1,-1,-1,-1,-1,-1,-1,-1,-1,-1,-1,-1,-1,-1,-1,-1,-1,-1,-1,-1],"split_conditions":[2.241873E0,4.735983E-1,-1.1206241E0,1.6909899E-1,6.2118614E-1,-8.6759186E-1,1.1761408E1,-1.0122867E-1,1.5901768E-1,-1.9727063E-1,1.1717669E0,1.5983514E-1,-9.320439E-2,1.4845346E0,9.0138346E-2,-4.0504977E-1,-3.3802566E-1,-1.5473455E-1,-9.222672E-1,1.8958554E-1,-9.2774755E-1,1.2881164E-1,-9.318214E-1,-1.6488975E-1,8.009818E-2,2.1408947E0,-9.05152E-1,3.8319024E-1,-3.9214167E-1,8.4747165E-2,-5.4256195E-1,3.4290177E-1,3.4908277E-1,-1.1030047E0,-6.1076534E-1,3.2346147E-1,3.175292E-1,1.407864E-1,-1.07598014E-1,1.7466916E-1,-3.4023628E-2,1.6240019E-1,-1.2479315E-1,9.947807E-4,2.2204556E-1,-9.720328E-2,1.6145472E-1,8.570364E-2,-1.5583213E-1,1.5469137E-1,-1.4735076E-1,1.5204467E-1,-1.0218649E-1,-1.5701096E-1,-4.8621457E-2,1.02292E-1,-1.2768643E-1,-8.7290704E-2,1.07758485E-1,1.4506364E-1,3.0562502E-1,2.0996794E-1,-3.5739355E-2],"split_indices":[5,0,9,9,9,2,7,2,2,9,3,0,0,0,0,2,0,2,1,0,1,10,1,0,0,8,8,1,8,10,8,11,0,1,8,11,11,0,0,0,0,0,0,0,0,0,0,0,0,0,0,0,0,0,0,0,0,0,0,0,0,0,0],"split_type":[0,0,0,0,0,0,0,0,0,0,0,0,0,0,0,0,0,0,0,0,0,0,0,0,0,0,0,0,0,0,0,0,0,0,0,0,0,0,0,0,0,0,0,0,0,0,0,0,0,0,0,0,0,0,0,0,0,0,0,0,0,0,0],"sum_hessian":[3.8626477E2,3.5636087E2,2.990392E1,2.1862032E2,1.3774054E2,3.9411654E0,2.5962753E1,1.2212681E2,9.6493515E1,1.01308754E2,3.6431786E1,2.8940177E0,1.0471479E0,2.4584177E1,1.3785765E0,7.537417E1,4.6752636E1,4.0376217E1,5.6117294E1,2.8552061E1,7.275669E1,3.3929054E1,2.5027323E0,2.3270231E1,1.3139445E0,3.1372915E1,4.400125E1,2.9258587E1,1.7494051E1,1.821025E1,2.2165966E1,9.797142E0,4.6320152E1,2.9121187E1,4.3635506E1,1.3264786E1,2.0664268E1,1.3686304E0,1.1341019E0,2.8534986E1,2.8379292E0,7.2893124E0,3.671194E1,3.828151E0,2.5430435E1,4.999619E0,1.2494432E1,7.2932596E0,1.0916991E1,2.0411112E1,1.7548549E0,8.715728E0,1.0814137E0,3.5478138E1,1.0842015E1,9.923248E0,1.9197939E1,4.402428E0,3.9233078E1,5.951515E0,7.313271E0,1.6040615E1,4.6236534E0],"tree_param":{"num_deleted":"0","num_feature":"12","num_nodes":"63","size_leaf_vector":"1"}},{"base_weights":[7.373031E-2,-3.4756994E-1,1.3299875E-1,-4.8625863E-1,1.1084963E-1,1.5889294E-1,-3.93973E-1,-1.023876E-2,-1.5944557E-1,-1.2773667E-1,3.4538946E-1,-1.266346E-1,2.0626678E-1,7.4095435E-2,-4.771985E-1,-1.13743655E-1,1.3047141E-1,7.687986E-3,4.9508548E-1,-4.0849626E-1,1.4676201E-1,2.564532E-1,-1.2531213E-1,-1.6956751E-1,-5.376187E-1,-1.19179815E-1,1.2782958E-1,1.7048088E-1,3.4689963E-2,-5.6849176E-1,-9.5005065E-2,3.5227868E-1,-2.5690928E-1,-3.9124987E-1,2.763467E-1,2.24372E-1,-4.5552087E-1,-1.263931E-1,7.383675E-2,-1.7403823E-1,-2.5912637E-2,-1.921096E-1,3.9973773E-2,8.970885E-2,-1.13067694E-1,3.1348392E-2,2.0717528E-1,4.0918306E-2,-1.3256633E-1,1.1613181E-1,-1.8541963E-1,-2.7722584E-2,9.175097E-2,-1.6839752E-2,1.3053589E-1,1.3222164E-1,-1.6283876E-1],"categories":[],"categories_nodes":[],"categories_segments":[],"categories_sizes":[],"default_left":[0,0,0,0,0,0,0,0,0,0,0,0,0,0,0,0,0,0,0,0,0,0,0,0,0,0,0,0,0,0,0,0,0,0,0,0,0,0,0,0,0,0,0,0,0,0,0,0,0,0,0,0,0,0,0,0,0],"id":15,"left_children":[1,3,5,7,9,11,13,15,-1,-1,17,19,21,-1,23,-1,-1,25,27,29,31,33,35,37,39,-1,-1,-1,-1,41,43,45,47,49,51,53,55,-1,-1,-1,-1,-1,-1,-1,-1,-1,-1,-1,-1,-1,-1,-1,-1,-1,-1,-1,-1],"loss_changes":[8.908943E0,2.8545647E0,4.3184466E0,7.2664547E-1,1.5373445E0,4.056908E0,9.124203E-1,8.168536E-1,0E0,0E0,4.126799E-1,3.375498E0,4.2915983E0,0E0,1.6021466E-1,0E0,0E0,7.70123E-1,9.237015E-2,1.0218167E0,1.963469E0,2.976922E0,4.065175E0,4.8888835E-1,1.578865E-1,0E0,0E0,0E0,0E0,7.914648E-1,1.0511044E0,1.2172366E0,6.5645695E-1,1.4836171E0,2.383648E0,1.0494182E0,1.6457949E0,0E0,0E0,0E0,0E0,0E0,0E0,0E0,0E0,0E0,0E0,0E0,0E0,0E0,0E0,0E0,0E0,0E0,0E0,0E0,0E0],"parents":[2147483647,0,0,1,1,2,2,3,3,4,4,5,5,6,6,7,7,10,10,11,11,12,12,14,14,17,17,18,18,19,19,20,20,21,21,22,22,23,23,24,24,29,29,30,30,31,31,32,32,33,33,34,34,35,35,36,36],"right_children":[2,4,6,8,10,12,14,16,-1,-1,18,20,22,-1,24,-1,-1,26,28,30,32,34,36,38,40,-1,-1,-1,-1,42,44,46,48,50,52,54,56,-1,-1,-1,-1,-1,-1,-1,-1,-1,-1,-1,-1,-1,-1,-1,-1,-1,-1,-1,-1],"split_conditions":[-2.6459417E-1,4.1255763E-1,1.1400234E0,-5.637075E-1,-1.7218258E0,-3.9279082E-1,-9.677032E-1,1.1523593E-1,-1.5944557E-1,-1.2773667E-1,-1.6380935E0,1.6002792E-1,3.5318282E-1,7.4095435E-2,1.1774943E0,-1.13743655E-1,1.3047141E-1,-2.6657373E-1,2.5212204E0,-1.0285843E-1,5.4711294E-1,-1.7650471E0,3.5187128E-1,4.021051E-1,-8.453654E-1,-1.19179815E-1,1.2782958E-1,1.7048088E-1,3.4689963E-2,1.0377344E0,-4.4313756E-1,2.7424878E-1,4.5068395E-1,4.5977965E-1,1.8786095E-1,1.3960037E-1,-8.292465E-2,-1.263931E-1,7.383675E-2,-1.7403823E-1,-2.5912637E-2,-1.921096E-1,3.9973773E-2,8.970885E-2,-1.13067694E-1,3.1348392E-2,2.0717528E-1,4.0918306E-2,-1.3256633E-1,1.1613181E-1,-1.8541963E-1,-2.7722584E-2,9.175097E-2,-1.6839752E-2,1.3053589E-1,1.3222164E-1,-1.6283876E-1],"split_indices":[9,1,2,0,9,2,8,10,0,0,0,9,11,0,2,0,0,2,8,3,9,0,0,8,1,0,0,0,0,0,8,11,0,1,11,2,2,0,0,0,0,0,0,0,0,0,0,0,0,0,0,0,0,0,0,0,0],"split_type":[0,0,0,0,0,0,0,0,0,0,0,0,0,0,0,0,0,0,0,0,0,0,0,0,0,0,0,0,0,0,0,0,0,0,0,0,0,0,0,0,0,0,0,0,0,0,0,0,0,0,0,0,0,0,0,0,0],"sum_hessian":[3.539373E2,4.3051094E1,3.108862E2,3.300511E1,1.0045981E1,2.9699118E2,1.3894997E1,2.9701362E0,3.0034977E1,2.807306E0,7.2386756E0,4.2025505E1,2.5496568E2,1.3707293E0,1.2524267E1,1.7052199E0,1.2649163E0,2.5461457E0,4.6925297E0,2.0449097E1,2.1576406E1,2.2164499E2,3.3320705E1,2.6808937E0,9.843373E0,1.3195599E0,1.2265859E0,3.5166724E0,1.1758575E0,1.3000601E1,7.448497E0,1.4381717E1,7.19469E0,6.048474E0,2.1559651E2,1.6338787E1,1.6981918E1,1.6612914E0,1.0196023E0,8.734895E0,1.1084787E0,1.1872092E1,1.128508E0,3.0809689E0,4.3675284E0,9.057003E0,5.324714E0,2.3854222E0,4.809268E0,1.205364E0,4.8431096E0,1.5806825E1,1.9978969E2,7.3240914E0,9.014696E0,1.1475267E0,1.5834392E1],"tree_param":{"num_deleted":"0","num_feature":"12","num_nodes":"57","size_leaf_vector":"1"}},{"base_weights":[-3.6243093E-1,-1.6701217E-1,4.5842245E-1,4.8994285E-1,-1.0467712E-1,5.196678E-1,-4.4088364E-2,-5.745226E-5,5.422124E-1,6.9360554E-2,5.703811E-1,6.328642E-2,-3.436002E-2,4.068128E-3,1.7682408E-1],"categories":[],"categories_nodes":[],"categories_segments":[],"categories_sizes":[],"default_left":[0,0,0,0,0,0,0,0,0,0,0,0,0,0,0],"id":16,"left_children":[1,-1,3,5,-1,7,-1,-1,9,11,13,-1,-1,-1,-1],"loss_changes":[3.3173805E1,0E0,1.1902313E0,8.14044E-1,0E0,4.389906E-1,0E0,0E0,4.384985E-1,1.0634731E-1,3.4951973E-1,0E0,0E0,0E0,0E0],"parents":[2147483647,0,0,2,2,3,3,5,5,8,8,9,9,10,10],"right_children":[2,-1,4,6,-1,8,-1,-1,10,12,14,-1,-1,-1,-1],"split_conditions":[2.2300715E0,-1.6701217E-1,2.2094388E0,1.1761408E1,-1.0467712E-1,-1.0083414E0,-4.4088364E-2,-5.745226E-5,-4.012885E-1,-5.245602E-1,-1.5089075E-1,6.328642E-2,-3.436002E-2,4.068128E-3,1.7682408E-1],"split_indices":[5,0,8,7,0,0,0,0,8,8,4,0,0,0,0],"split_type":[0,0,0,0,0,0,0,0,0,0,0,0,0,0,0],"sum_hessian":[2.0542201E2,1.6636841E2,3.9053604E1,3.7964535E1,1.0890678E0,3.6447567E1,1.5169703E0,1.5561295E0,3.4891438E1,2.1563466E0,3.273509E1,1.1351515E0,1.021195E0,1.1385255E0,3.1596563E1],"tree_param":{"num_deleted":"0","num_feature":"12","num_nodes":"15","size_leaf_vector":"1"}},{"base_weights":[1.3665439E-1,1.7106973E-1,-3.028373E-1,2.0768301E-1,-2.1558449E-1,2.057709E-1,-4.1160303E-1,6.3839465E-1,1.665375E-1,3.077977E-1,-4.864772E-1,1.4942746E-1,-1.1186854E-1,-4.679665E-1,7.411191E-2,7.0879114E-1,-8.0893636E-2,2.2217E-1,-2.216836E-1,4.7082415E-1,-6.849961E-2,-5.8269894E-1,3.296434E-2,-1.5768938E-1,6.905458E-2,5.38785E-1,2.971892E-1,1.531364E-1,5.1599336E-1,4.4638368E-1,-4.245555E-1,-6.737117E-2,2.2501636E-1,-2.3176208E-2,-1.9003631E-1,-8.412317E-2,1.411956E-1,1.7675832E-1,1.0991368E-2,3.2831375E-2,1.7640123E-1,-1.1576297E-1,1.7511055E-1,2.0308618E-1,-8.227941E-3,4.1055765E-2,-1.4219624E-1,5.9680168E-2,-7.565751E-2],"categories":[],"categories_nodes":[],"categories_segments":[],"categories_sizes":[],"default_left":[0,0,0,0,0,0,0,0,0,0,0,0,0,0,0,0,0,0,0,0,0,0,0,0,0,0,0,0,0,0,0,0,0,0,0,0,0,0,0,0,0,0,0,0,0,0,0,0,0],"id":17,"left_children":[1,3,5,7,9,11,13,15,17,19,21,-1,-1,23,-1,25,-1,27,29,31,-1,33,35,-1,-1,37,-1,39,41,43,45,47,-1,-1,-1,-1,-1,-1,-1,-1,-1,-1,-1,-1,-1,-1,-1,-1,-1],"loss_changes":[5.435858E0,4.7271404E0,1.5346806E0,5.2572355E0,4.2757335E0,1.0796349E0,9.296036E-1,1.855546E0,6.045074E0,1.0285319E0,9.9703074E-1,0E0,0E0,9.480562E-1,0E0,6.3730335E-1,0E0,4.856352E0,4.9733357E0,1.3139589E0,0E0,3.7588263E-1,6.811726E-1,0E0,0E0,4.197955E-1,0E0,3.706771E0,3.0261946E0,9.700235E-1,8.304558E-1,2.3668018E-1,0E0,0E0,0E0,0E0,0E0,0E0,0E0,0E0,0E0,0E0,0E0,0E0,0E0,0E0,0E0,0E0,0E0],"parents":[2147483647,0,0,1,1,2,2,3,3,4,4,5,5,6,6,7,7,8,8,9,9,10,10,13,13,15,15,17,17,18,18,19,19,21,21,22,22,25,25,27,27,28,28,29,29,30,30,31,31],"right_children":[2,4,6,8,10,12,14,16,18,20,22,-1,-1,24,-1,26,-1,28,30,32,-1,34,36,-1,-1,38,-1,40,42,44,46,48,-1,-1,-1,-1,-1,-1,-1,-1,-1,-1,-1,-1,-1,-1,-1,-1,-1],"split_conditions":[2.2300715E0,1.4643984E0,-1.1206241E0,-1.0187014E0,-1.1142575E-1,-1.1029404E-1,1.1761408E1,1.9315348E0,9.2325675E-1,2.9880062E-1,-9.596536E-1,1.4942746E-1,-1.1186854E-1,1.4845346E0,7.411191E-2,1.3171281E0,-8.0893636E-2,5.773652E-1,1.8675523E-1,-2.909649E-1,-6.849961E-2,-1.2971387E0,-1.5532014E0,-1.5768938E-1,6.905458E-2,1.276105E0,2.971892E-1,1.1400234E0,-1.6748997E0,-2.7772661E-2,-1.2725607E0,-6.3372105E-1,2.2501636E-1,-2.3176208E-2,-1.9003631E-1,-8.412317E-2,1.411956E-1,1.7675832E-1,1.0991368E-2,3.2831375E-2,1.7640123E-1,-1.1576297E-1,1.7511055E-1,2.0308618E-1,-8.227941E-3,4.1055765E-2,-1.4219624E-1,5.9680168E-2,-7.565751E-2],"split_indices":[5,1,9,8,3,3,7,11,1,11,8,0,0,0,0,1,0,10,11,2,0,0,9,0,0,1,0,2,0,8,0,2,0,0,0,0,0,0,0,0,0,0,0,0,0,0,0,0,0],"split_type":[0,0,0,0,0,0,0,0,0,0,0,0,0,0,0,0,0,0,0,0,0,0,0,0,0,0,0,0,0,0,0,0,0,0,0,0,0,0,0,0,0,0,0,0,0,0,0,0,0],"sum_hessian":[3.549644E2,3.297531E2,2.521127E1,3.016518E2,2.8101318E1,4.284465E0,2.0926805E1,2.5038027E1,2.7661377E2,9.537677E0,1.8563643E1,2.9390218E0,1.345443E0,1.9543837E1,1.3829687E0,2.3440233E1,1.597794E0,2.4231717E2,3.4296597E1,7.407126E0,2.130551E0,1.5559591E1,3.004051E0,1.8280994E1,1.2628424E0,1.6437046E1,7.0031867E0,1.9744806E2,4.48691E1,7.709268E0,2.6587328E1,2.7894323E0,4.617694E0,1.6500198E0,1.3909572E1,1.9600406E0,1.0440104E0,1.477997E1,1.6570766E0,1.805562E2,1.6891872E1,2.805185E0,4.2063915E1,4.8973336E0,2.8119342E0,2.0084517E0,2.4578876E1,1.1115108E0,1.6779217E0],"tree_param":{"num_deleted":"0","num_feature":"12","num_nodes":"49","size_leaf_vector":"1"}},{"base_weights":[6.546328E-2,-3.2229683E-1,1.1303605E-1,-4.663001E-1,1.0900468E-1,1.3202068E-1,-3.8419282E-1,-5.167211E-3,-1.5486063E-1,-1.1793474E-1,3.150694E-1,1.7358208E-1,-1.5664059E-1,-1.6385011E-1,7.9073824E-2,-1.068315E-1,1.2041982E-1,8.182946E-3,4.532491E-1,-1.5805885E-1,2.0293793E-1,1.1560469E-1,-5.558179E-1,-1.0921314E-1,1.1842657E-1,1.5550488E-1,3.2092504E-2,-3.8075274E-1,1.257206E-1,-2.5213486E-1,2.275285E-1,-2.0018785E-1,3.0161485E-1,1.9609256E-2,-6.0685796E-1,-5.4650508E-2,-1.5055981E-1,1.300881E-1,-1.3210095E-1,-1.4753276E-1,8.259082E-3,-1.0400353E-1,7.28766E-2,-9.946715E-2,1.0978596E-1,-4.888134E-2,1.6167805E-1,-1.8734414E-2,-1.9604331E-1],"categories":[],"categories_nodes":[],"categories_segments":[],"categories_sizes":[],"default_left":[0,0,0,0,0,0,0,0,0,0,0,0,0,0,0,0,0,0,0,0,0,0,0,0,0,0,0,0,0,0,0,0,0,0,0,0,0,0,0,0,0,0,0,0,0,0,0,0,0],"id":18,"left_children":[1,3,5,7,9,11,13,15,-1,-1,17,19,21,-1,-1,-1,-1,23,25,27,29,31,33,-1,-1,-1,-1,35,37,39,41,43,45,-1,47,-1,-1,-1,-1,-1,-1,-1,-1,-1,-1,-1,-1,-1,-1],"loss_changes":[6.1709623E0,2.3240511E0,2.8538554E0,6.3310957E-1,1.1556499E0,3.467677E0,1.3166382E0,6.7199963E-1,0E0,0E0,3.1965238E-1,2.4772315E0,4.043769E0,0E0,0E0,0E0,0E0,6.309085E-1,6.2663555E-2,1.3740916E0,2.6442776E0,1.3878345E0,5.158844E-1,0E0,0E0,0E0,0E0,1.9735205E-1,1.9302369E0,8.395904E-1,2.0274343E0,7.8905976E-1,1.6996423E0,0E0,3.139305E-1,0E0,0E0,0E0,0E0,0E0,0E0,0E0,0E0,0E0,0E0,0E0,0E0,0E0,0E0],"parents":[2147483647,0,0,1,1,2,2,3,3,4,4,5,5,6,6,7,7,10,10,11,11,12,12,17,17,18,18,19,19,20,20,21,21,22,22,27,27,28,28,29,29,30,30,31,31,32,32,34,34],"right_children":[2,4,6,8,10,12,14,16,-1,-1,18,20,22,-1,-1,-1,-1,24,26,28,30,32,34,-1,-1,-1,-1,36,38,40,42,44,46,-1,48,-1,-1,-1,-1,-1,-1,-1,-1,-1,-1,-1,-1,-1,-1],"split_conditions":[-2.6459417E-1,4.1255763E-1,9.310095E-1,-5.637075E-1,-1.7218258E0,3.5179913E-1,3.4290177E-1,1.1523593E-1,-1.5486063E-1,-1.1793474E-1,-1.6380935E0,1.8786095E-1,4.5068395E-1,-1.6385011E-1,7.9073824E-2,-1.068315E-1,1.2041982E-1,-2.6657373E-1,2.5212204E0,-5.890178E-1,-1.1252211E0,6.59059E-3,-1.6091366E-1,-1.0921314E-1,1.1842657E-1,1.5550488E-1,3.2092504E-2,8.464348E-1,7.5105006E-1,6.991507E-1,-1.7650471E0,7.0781565E-1,2.0878763E-1,1.9609256E-2,-2.4749705E-1,-5.4650508E-2,-1.5055981E-1,1.300881E-1,-1.3210095E-1,-1.4753276E-1,8.259082E-3,-1.0400353E-1,7.28766E-2,-9.946715E-2,1.0978596E-1,-4.888134E-2,1.6167805E-1,-1.8734414E-2,-1.9604331E-1],"split_indices":[9,1,9,0,9,11,11,10,0,0,0,11,0,0,0,0,0,2,8,8,1,10,9,0,0,0,0,1,0,3,0,2,9,0,10,0,0,0,0,0,0,0,0,0,0,0,0,0,0],"split_type":[0,0,0,0,0,0,0,0,0,0,0,0,0,0,0,0,0,0,0,0,0,0,0,0,0,0,0,0,0,0,0,0,0,0,0,0,0,0,0,0,0,0,0,0,0,0,0,0,0],"sum_hessian":[3.3155215E2,3.5600643E1,2.959515E2,2.662869E1,8.9719515E0,2.8577487E2,1.0176641E1,2.7080243E0,2.3920668E1,2.3464932E0,6.6254587E0,2.501561E2,3.5618774E1,8.266479E0,1.9101635E0,1.5200624E0,1.1879618E0,2.385862E0,4.2395964E0,1.9985888E1,2.3017021E2,2.1598585E1,1.4020187E1,1.2451737E0,1.1406884E0,3.150382E0,1.0892146E0,1.10067215E1,8.979166E0,1.1325592E1,2.1884462E2,7.9779935E0,1.3620592E1,1.0432076E0,1.2976979E1,5.1184044E0,5.888317E0,5.967241E0,3.0119255E0,5.6907907E0,5.6348014E0,5.151791E0,2.1369283E2,6.811732E0,1.1662619E0,4.7113123E0,8.90928E0,1.208147E0,1.1768832E1],"tree_param":{"num_deleted":"0","num_feature":"12","num_nodes":"49","size_leaf_vector":"1"}},{"base_weights":[-3.596345E-1,-1.6324249E-1,4.170216E-1,4.576393E-1,-1.06120676E-1,-1.5095028E-2,4.9009067E-1,5.1378214E-1,-1.6130637E-2,1.718827E-2,5.4579496E-1,4.3475613E-2,1.6827714E-1],"categories":[],"categories_nodes":[],"categories_segments":[],"categories_sizes":[],"default_left":[0,0,0,0,0,0,0,0,0,0,0,0,0],"id":19,"left_children":[1,-1,3,5,-1,-1,7,9,-1,-1,11,-1,-1],"loss_changes":[2.4781738E1,0E0,1.2093854E0,5.557809E-1,0E0,0E0,4.190526E-1,3.9552307E-1,0E0,0E0,8.351898E-2,0E0,0E0],"parents":[2147483647,0,0,2,2,3,3,6,6,7,7,10,10],"right_children":[2,-1,4,6,-1,-1,8,10,-1,-1,12,-1,-1],"split_conditions":[-1.7587401E-1,-1.6324249E-1,2.2094388E0,-1.0083414E0,-1.06120676E-1,-1.5095028E-2,1.1761408E1,-4.012885E-1,-1.6130637E-2,1.718827E-2,2.2554376E0,4.3475613E-2,1.6827714E-1],"split_indices":[4,0,8,0,0,0,7,8,0,0,5,0,0],"split_type":[0,0,0,0,0,0,0,0,0,0,0,0,0],"sum_hessian":[1.7035428E2,1.3789459E2,3.245969E1,3.1220655E1,1.2390327E0,1.8417344E0,2.9378922E1,2.8205542E1,1.1733792E0,2.0312064E0,2.6174335E1,1.3366067E0,2.4837729E1],"tree_param":{"num_deleted":"0","num_feature":"12","num_nodes":"13","size_leaf_vector":"1"}},{"base_weights":[1.1951978E-1,1.4253204E-1,-3.331091E-1,4.1075158E-1,1.0345078E-1,6.73913E-2,-4.4373983E-1,1.693709E-1,1.6525859E-1,1.3305432E-1,-2.74394E-1,-5.276744E-2,9.9692605E-2,-1.5078297E-1,3.285225E-2,4.464115E-1,-7.881088E-2,5.8071136E-1,9.4585806E-2,-4.0428334E-1,2.0846945E-1,1.6244489E-1,1.4390084E-3,-1.8048562E-1,9.757285E-2,6.569777E-1,-7.30827E-2,1.2742989E-1,-3.2418287E-1,8.203656E-2,-5.420721E-1,5.6636985E-2,-9.556747E-2,2.3503646E-1,4.117168E-2,2.0063097E-2,1.1911709E-1,-1.2298214E-1,1.2686293E-1,1.0299479E-1,-6.534228E-2,-1.6552968E-2,-1.7912123E-1],"categories":[],"categories_nodes":[],"categories_segments":[],"categories_sizes":[],"default_left":[0,0,0,0,0,0,0,0,0,0,0,0,0,0,0,0,0,0,0,0,0,0,0,0,0,0,0,0,0,0,0,0,0,0,0,0,0,0,0,0,0,0,0],"id":20,"left_children":[1,3,5,7,9,11,13,15,-1,17,19,-1,-1,-1,-1,21,23,25,27,29,-1,-1,-1,31,-1,33,-1,35,37,39,41,-1,-1,-1,-1,-1,-1,-1,-1,-1,-1,-1,-1],"loss_changes":[3.520793E0,3.2911701E0,7.5800884E-1,1.2631712E0,3.156352E0,3.4363723E-1,4.7870612E-1,1.1472951E0,0E0,4.410847E0,2.8734288E0,0E0,0E0,0E0,0E0,3.2459247E-1,4.441192E-1,1.4379392E0,3.3422787E0,1.3036084E0,0E0,0E0,0E0,4.7510332E-1,0E0,1.1332798E0,0E0,3.6185923E0,1.3096547E0,4.678284E-1,3.6266708E-1,0E0,0E0,0E0,0E0,0E0,0E0,0E0,0E0,0E0,0E0,0E0,0E0],"parents":[2147483647,0,0,1,1,2,2,3,3,4,4,5,5,6,6,7,7,9,9,10,10,15,15,16,16,17,17,18,18,19,19,23,23,25,25,27,27,28,28,29,29,30,30],"right_children":[2,4,6,8,10,12,14,16,-1,18,20,-1,-1,-1,-1,22,24,26,28,30,-1,-1,-1,32,-1,34,-1,36,38,40,42,-1,-1,-1,-1,-1,-1,-1,-1,-1,-1,-1,-1],"split_conditions":[2.3563201E0,-2.5908792E-1,-3.3651344E-2,2.4569939E-1,1.4643984E0,1.4542688E0,4.777029E0,-1.1544322E-1,1.6525859E-1,-1.0402328E0,1.7968144E0,-5.276744E-2,9.9692605E-2,-1.5078297E-1,3.285225E-2,1.6265241E0,4.1294378E-1,1.9315348E0,1.154479E0,6.7232597E-1,2.0846945E-1,1.6244489E-1,1.4390084E-3,-1.6929789E0,9.757285E-2,-6.62571E-1,-7.30827E-2,5.773652E-1,9.143858E-1,-1.7944275E-1,-1.2971387E0,5.6636985E-2,-9.556747E-2,2.3503646E-1,4.117168E-2,2.0063097E-2,1.1911709E-1,-1.2298214E-1,1.2686293E-1,1.0299479E-1,-6.534228E-2,-1.6552968E-2,-1.7912123E-1],"split_indices":[5,9,4,0,1,8,4,3,0,8,1,0,0,0,0,1,10,11,1,10,0,0,0,9,0,0,0,10,0,0,0,0,0,0,0,0,0,0,0,0,0,0,0],"split_type":[0,0,0,0,0,0,0,0,0,0,0,0,0,0,0,0,0,0,0,0,0,0,0,0,0,0,0,0,0,0,0,0,0,0,0,0,0,0,0,0,0,0,0],"sum_hessian":[3.32459E2,3.170261E2,1.5432933E1,3.9108612E1,2.7791748E2,3.4249449E0,1.2007988E1,1.5174677E1,2.3933933E1,2.5832593E2,1.9591562E1,1.9605532E0,1.4643917E0,1.093585E1,1.0721374E0,6.793025E0,8.381652E0,1.9326633E1,2.3899928E2,1.779047E1,1.8010917E0,5.4035897E0,1.3894355E0,7.1386247E0,1.2430271E0,1.7875769E1,1.4508649E0,2.2226288E2,1.6736406E1,4.0170546E0,1.3773416E1,1.8427802E0,5.2958446E0,1.3969038E1,3.9067311E0,1.8252043E2,3.974245E1,1.5417803E1,1.3186034E0,2.0690963E0,1.9479586E0,1.6012256E0,1.217219E1],"tree_param":{"num_deleted":"0","num_feature":"12","num_nodes":"43","size_leaf_vector":"1"}},{"base_weights":[5.6421287E-2,7.9993635E-2,-1.4911333E-1,-2.813799E-1,1.063618E-1,-4.981209E-1,-3.2053897E-3,2.5525633E-1,2.8402919E-2,-1.6490729E-1,-2.5494152E-1,-2.888167E-1,4.045354E-1,6.924522E-2,4.8524803E-1,-3.84153E-1,1.1317959E-1,1.991263E-2,-1.1961464E-1,-1.4683329E-1,3.2943558E-2,2.5287602E-2,1.4899836E-1,1.3173851E-1,-3.4940594E-1,-1.0437457E-1,5.9844077E-1,1.4384586E-1,-4.5714414E-1,1.5123472E-1,-4.085319E-1,-1.4170279E-1,5.3477984E-2,-1.9212411E-1,1.1972186E-1,-9.062611E-2,1.3534199E-1,3.295402E-2,1.9275895E-1,-1.6184072E-1,-7.438689E-2,-1.0298466E-1,5.6176998E-2,-1.497433E-1,2.6682368E-2],"categories":[],"categories_nodes":[],"categories_segments":[],"categories_sizes":[],"default_left":[0,0,0,0,0,0,0,0,0,0,0,0,0,0,0,0,0,0,0,0,0,0,0,0,0,0,0,0,0,0,0,0,0,0,0,0,0,0,0,0,0,0,0,0,0],"id":21,"left_children":[1,3,-1,5,7,9,11,13,15,-1,17,19,21,23,25,27,29,-1,-1,-1,-1,-1,-1,31,33,35,37,-1,39,41,43,-1,-1,-1,-1,-1,-1,-1,-1,-1,-1,-1,-1,-1,-1],"loss_changes":[4.1277633E0,2.9019184E0,0E0,1.2507262E0,3.26183E0,6.189108E-3,1.2933668E0,4.101538E0,6.54791E0,0E0,2.0693052E-1,5.75561E-1,9.320444E-2,1.4746565E0,2.9358797E0,2.231938E0,3.1399984E0,0E0,0E0,0E0,0E0,0E0,0E0,1.4398439E0,1.8600191E0,9.9138004E-1,7.1068764E-1,0E0,3.820634E-1,2.6513903E0,5.317097E-1,0E0,0E0,0E0,0E0,0E0,0E0,0E0,0E0,0E0,0E0,0E0,0E0,0E0,0E0],"parents":[2147483647,0,0,1,1,3,3,4,4,5,5,6,6,7,7,8,8,10,10,11,11,12,12,13,13,14,14,15,15,16,16,23,23,24,24,25,25,26,26,28,28,29,29,30,30],"right_children":[2,4,-1,6,8,10,12,14,16,-1,18,20,22,24,26,28,30,-1,-1,-1,-1,-1,-1,32,34,36,38,-1,40,42,44,-1,-1,-1,-1,-1,-1,-1,-1,-1,-1,-1,-1,-1,-1],"split_conditions":[9.753572E-2,-7.5007915E-1,-1.4911333E-1,1.21875465E-1,-9.609711E-2,2.7658185E-1,9.2325675E-1,-2.3186813E-1,-3.7450385E-3,-1.6490729E-1,-7.513167E-1,2.777201E-1,2.7487278E-1,4.2220116E-1,-9.180665E-1,-1.6748997E0,1.1575012E0,1.991263E-2,-1.1961464E-1,-1.4683329E-1,3.2943558E-2,2.5287602E-2,1.4899836E-1,-1.1504797E0,2.9880062E-1,-1.2595978E0,1.8521611E-1,1.4384586E-1,3.1309482E-1,-1.2362905E0,-8.453654E-1,-1.4170279E-1,5.3477984E-2,-1.9212411E-1,1.1972186E-1,-9.062611E-2,1.3534199E-1,3.295402E-2,1.9275895E-1,-1.6184072E-1,-7.438689E-2,-1.0298466E-1,5.6176998E-2,-1.497433E-1,2.6682368E-2],"split_indices":[4,2,0,10,2,11,1,2,9,0,8,11,9,10,8,0,2,0,0,0,0,0,0,1,11,0,11,0,11,0,1,0,0,0,0,0,0,0,0,0,0,0,0,0,0],"split_type":[0,0,0,0,0,0,0,0,0,0,0,0,0,0,0,0,0,0,0,0,0,0,0,0,0,0,0,0,0,0,0,0,0,0,0,0,0,0,0,0,0,0,0,0,0],"sum_hessian":[3.1234128E2,3.004025E2,1.19388075E1,1.9771023E1,2.8063147E2,1.0668181E1,9.102841E0,9.5658325E1,1.8497313E2,7.761745E0,2.9064362E0,5.5246444E0,3.5781968E0,5.360507E1,4.205326E1,3.0929058E1,1.5404407E2,1.0648848E0,1.8415513E0,3.523477E0,2.001167E0,1.2272062E0,2.3509905E0,4.7238903E1,6.366164E0,6.785484E0,3.5267776E1,1.9762882E0,2.895277E1,1.442334E2,9.810679E0,2.7233217E0,4.451558E1,4.6878953E0,1.678269E0,5.3408365E0,1.4446473E0,3.2080185E0,3.2059757E1,1.9643347E1,9.3094225E0,9.213852E0,1.3501955E2,8.2962055E0,1.514474E0],"tree_param":{"num_deleted":"0","num_feature":"12","num_nodes":"45","size_leaf_vector":"1"}},{"base_weights":[-3.5830188E-1,-1.603174E-1,3.826453E-1,4.2300528E-1,-9.660586E-2,3.1742617E-2,4.663498E-1,-1.00263186E-1,1.1331213E-1,4.967894E-1,-2.348999E-2,1.3265627E-2,5.2301484E-1,1.6246206E-1,3.0121988E-2],"categories":[],"categories_nodes":[],"categories_segments":[],"categories_sizes":[],"default_left":[0,0,0,0,0,0,0,0,0,0,0,0,0,0,0],"id":22,"left_children":[1,-1,3,5,-1,7,9,-1,-1,11,-1,-1,13,-1,-1],"loss_changes":[1.8783348E1,0E0,9.3042946E-1,4.4046545E-1,0E0,6.0105616E-1,4.383626E-1,0E0,0E0,2.4932861E-1,0E0,0E0,1.1477661E-1,0E0,0E0],"parents":[2147483647,0,0,2,2,3,3,5,5,6,6,9,9,12,12],"right_children":[2,-1,4,6,-1,8,10,-1,-1,12,-1,-1,14,-1,-1],"split_conditions":[-1.7587401E-1,-1.603174E-1,2.2094388E0,-1.1206241E0,-9.660586E-2,-9.734768E-2,1.1920809E1,-1.00263186E-1,1.1331213E-1,-1.0083414E0,-2.348999E-2,1.3265627E-2,9.0099704E-1,1.6246206E-1,3.0121988E-2],"split_indices":[4,0,8,9,0,3,6,0,0,0,0,0,3,0,0],"split_type":[0,0,0,0,0,0,0,0,0,0,0,0,0,0,0],"sum_hessian":[1.4139624E2,1.1447056E2,2.6925674E1,2.5845093E1,1.0805813E0,2.75037E0,2.3094723E1,1.3530837E0,1.3972864E0,2.1955538E1,1.1391842E0,1.3497139E0,2.0605825E1,1.9470882E1,1.1349428E0],"tree_param":{"num_deleted":"0","num_feature":"12","num_nodes":"15","size_leaf_vector":"1"}},{"base_weights":[1.0607541E-1,3.952342E-1,7.676621E-2,5.4183125E-1,2.5095679E-2,-9.311926E-2,1.5662415E-1,6.267267E-2,1.6882795E-1,-1.24823384E-1,1.6305128E-1,8.9001864E-2,-3.5239294E-1,3.857795E-1,8.356992E-2,3.580113E-1,-1.8537743E-1,2.3534203E-2,5.7769793E-1,2.5457966E-1,-4.8493558E-1,4.9218836E-1,-2.4921262E-1,3.6012933E-2,5.0752234E-1,1.4933842E-1,-3.578849E-2,4.8876964E-3,-8.842512E-2,1.6554093E-1,-2.6400242E-2,2.5500366E-1,-9.656557E-2,4.3209845E-1,-1.1545142E-1,8.201444E-2,-5.5009764E-1,-2.6999035E-1,5.452846E-1,-3.8771585E-1,7.493868E-2,4.8230943E-1,-5.403164E-3,5.58967E-1,2.2718754E-2,-8.2473144E-2,1.5212229E-2,5.4629575E-3,2.461643E-1,-6.472696E-2,9.914891E-2,5.422393E-2,-1.8191078E-1,-1.6624007E-2,-1.0544225E-1,1.6832729E-1,5.0410987E-3,-1.6525626E-2,-1.3268147E-1,2.0257851E-1,-7.1813345E-2,1.932031E-2,-8.8281944E-2,7.906698E-2,1.8572566E-1],"categories":[],"categories_nodes":[],"categories_segments":[],"categories_sizes":[],"default_left":[0,0,0,0,0,0,0,0,0,0,0,0,0,0,0,0,0,0,0,0,0,0,0,0,0,0,0,0,0,0,0,0,0,0,0,0,0,0,0,0,0,0,0,0,0,0,0,0,0,0,0,0,0,0,0,0,0,0,0,0,0,0,0,0,0],"id":23,"left_children":[1,3,5,7,9,11,13,-1,-1,-1,15,17,19,21,23,25,27,29,31,33,35,37,39,41,43,-1,-1,-1,-1,-1,45,-1,-1,47,-1,49,51,53,55,57,-1,59,61,63,-1,-1,-1,-1,-1,-1,-1,-1,-1,-1,-1,-1,-1,-1,-1,-1,-1,-1,-1,-1,-1],"loss_changes":[2.6335335E0,1.5429673E0,3.9032693E0,2.5266647E-2,6.2697726E-1,4.388817E0,3.238121E0,0E0,0E0,0E0,5.905743E-1,1.7461934E0,3.2028503E0,3.2948036E0,2.9940348E0,4.1228676E-1,8.040471E-2,1.3215984E0,1.8550282E0,1.0194356E0,1.2184873E0,1.7880316E0,6.084243E-1,2.5055654E0,2.907138E-1,0E0,0E0,0E0,0E0,0E0,8.996817E-1,0E0,0E0,1.0066164E0,0E0,3.7795287E-1,1.2864828E0,3.838706E-2,3.0996704E-1,8.788657E-2,0E0,1.7644582E0,2.537538E0,7.1974754E-2,0E0,0E0,0E0,0E0,0E0,0E0,0E0,0E0,0E0,0E0,0E0,0E0,0E0,0E0,0E0,0E0,0E0,0E0,0E0,0E0,0E0],"parents":[2147483647,0,0,1,1,2,2,3,3,4,4,5,5,6,6,10,10,11,11,12,12,13,13,14,14,15,15,16,16,17,17,18,18,19,19,20,20,21,21,22,22,23,23,24,24,30,30,33,33,35,35,36,36,37,37,38,38,39,39,41,41,42,42,43,43],"right_children":[2,4,6,8,10,12,14,-1,-1,-1,16,18,20,22,24,26,28,30,32,34,36,38,40,42,44,-1,-1,-1,-1,-1,46,-1,-1,48,-1,50,52,54,56,58,-1,60,62,64,-1,-1,-1,-1,-1,-1,-1,-1,-1,-1,-1,-1,-1,-1,-1,-1,-1,-1,-1,-1,-1],"split_conditions":[-7.5007915E-1,2.777201E-1,-9.609711E-2,-1.1054983E0,2.9691148E-1,-2.3186813E-1,-3.7450385E-3,6.267267E-2,1.6882795E-1,-1.24823384E-1,-1.0428493E-1,4.2220116E-1,-9.180665E-1,-1.7660083E-1,1.1400234E0,1.2881164E-1,3.8319024E-1,-1.1563312E0,2.9880062E-1,-1.2595978E0,1.8521611E-1,-1.6748997E0,2.1408947E0,-1.2362905E0,-8.352942E-1,1.4933842E-1,-3.578849E-2,4.8876964E-3,-8.842512E-2,1.6554093E-1,-1.2766313E-2,2.5500366E-1,-9.656557E-2,-1.695422E0,-1.1545142E-1,-1.9067141E-1,-1.0196195E0,-2.1007274E-1,1.95899E0,-1.0516717E-1,7.493868E-2,-7.6331876E-2,7.014073E-1,-1.08262E0,2.2718754E-2,-8.2473144E-2,1.5212229E-2,5.4629575E-3,2.461643E-1,-6.472696E-2,9.914891E-2,5.422393E-2,-1.8191078E-1,-1.6624007E-2,-1.0544225E-1,1.6832729E-1,5.0410987E-3,-1.6525626E-2,-1.3268147E-1,2.0257851E-1,-7.1813345E-2,1.932031E-2,-8.8281944E-2,7.906698E-2,1.8572566E-1],"split_indices":[2,11,2,8,11,2,9,0,0,0,8,10,8,4,2,10,1,1,11,0,11,0,8,0,1,0,0,0,0,0,10,0,0,0,0,2,1,9,2,3,0,3,10,1,0,0,0,0,0,0,0,0,0,0,0,0,0,0,0,0,0,0,0,0,0],"split_type":[0,0,0,0,0,0,0,0,0,0,0,0,0,0,0,0,0,0,0,0,0,0,0,0,0,0,0,0,0,0,0,0,0,0,0,0,0,0,0,0,0,0,0,0,0,0,0,0,0,0,0,0,0,0,0,0,0,0,0,0,0,0,0,0,0],"sum_hessian":[3.133209E2,2.7686495E1,2.856344E2,1.9499615E1,8.186879E0,9.128135E1,1.9435306E2,1.8028388E0,1.7696777E1,1.4699715E0,6.716908E0,5.400409E1,3.7277264E1,4.5946884E1,1.4840617E2,4.2893434E0,2.4275646E0,4.8548496E1,5.455591E0,6.5161467E0,3.0761118E1,3.9545017E1,6.4018693E0,1.3441327E2,1.3992904E1,3.284518E0,1.0048255E0,1.1528659E0,1.2746986E0,3.3247364E0,4.522376E1,4.230173E0,1.225418E0,5.3539767E0,1.1621703E0,3.1443875E0,2.761673E1,2.3094032E0,3.7235615E1,5.1855974E0,1.2162719E0,1.0510246E1,1.2390302E2,1.2240073E1,1.7528307E0,1.0101706E1,3.5122055E1,3.0989525E0,2.255024E0,1.4902415E0,1.654146E0,1.8162038E0,2.5800526E1,1.0980043E0,1.211399E0,3.6094364E1,1.141249E0,1.0138404E0,4.1717567E0,8.343764E0,2.1664824E0,1.00415184E2,2.348784E1,2.9801512E0,9.259922E0],"tree_param":{"num_deleted":"0","num_feature":"12","num_nodes":"65","size_leaf_vector":"1"}},{"base_weights":[4.8193146E-2,6.748408E-2,-1.4403601E-1,8.5107125E-2,-3.8250002E-1,-2.8555992E-1,1.04196474E-1,6.0246647E-3,-4.259882E-1,-4.8982772E-1,-6.448457E-3,-1.3906178E-1,1.326079E-1,3.184015E-3,-1.4506073E-1,1.3773273E-2,-1.82245E-1,3.4207144E-1,-1.436356E-1,-4.4732553E-1,1.3265988E-1,3.0242044E-1,5.941742E-2,-4.0432017E-2,1.8890998E-1,-1.5591943E-1,-9.045823E-3,-1.05382286E-1,7.900982E-2,-7.1368665E-2,1.0472445E-1,-9.3253896E-2,3.8183324E-2],"categories":[],"categories_nodes":[],"categories_segments":[],"categories_sizes":[],"default_left":[0,0,0,0,0,0,0,0,0,0,0,0,0,0,0,0,0,0,0,0,0,0,0,0,0,0,0,0,0,0,0,0,0],"id":24,"left_children":[1,3,-1,5,7,9,11,-1,13,15,17,19,21,-1,-1,-1,-1,23,-1,25,27,29,31,-1,-1,-1,-1,-1,-1,-1,-1,-1,-1],"loss_changes":[3.0010352E0,2.2680175E0,0E0,1.9550095E0,1.9774246E-1,7.7186465E-1,1.811904E0,0E0,2.5129902E-1,5.218067E-1,1.2762395E0,2.3733904E0,2.8762956E0,0E0,0E0,0E0,0E0,6.981987E-1,0E0,3.821895E-1,1.0700805E0,1.8451939E0,4.159665E0,0E0,0E0,0E0,0E0,0E0,0E0,0E0,0E0,0E0,0E0],"parents":[2147483647,0,0,1,1,3,3,4,4,5,5,6,6,8,8,9,9,10,10,11,11,12,12,17,17,19,19,20,20,21,21,22,22],"right_children":[2,4,-1,6,8,10,12,-1,14,16,18,20,22,-1,-1,-1,-1,24,-1,26,28,30,32,-1,-1,-1,-1,-1,-1,-1,-1,-1,-1],"split_conditions":[9.753572E-2,1.1762751E0,-1.4403601E-1,-1.1252211E0,-4.6523693E-1,6.991507E-1,-5.0146645E-1,6.0246647E-3,-9.609219E-1,1.9501352E-1,4.5285895E-1,-1.7944275E-1,-9.609711E-2,3.184015E-3,-1.4506073E-1,1.3773273E-2,-1.82245E-1,-2.7422726E-1,-1.436356E-1,1.3356551E0,2.1321781E-1,-9.596536E-1,-3.7450385E-3,-4.0432017E-2,1.8890998E-1,-1.5591943E-1,-9.045823E-3,-1.05382286E-1,7.900982E-2,-7.1368665E-2,1.0472445E-1,-9.3253896E-2,3.8183324E-2],"split_indices":[4,0,0,1,8,3,2,0,1,11,9,0,2,0,0,0,0,2,0,1,11,8,9,0,0,0,0,0,0,0,0,0,0],"split_type":[0,0,0,0,0,0,0,0,0,0,0,0,0,0,0,0,0,0,0,0,0,0,0,0,0,0,0,0,0,0,0,0,0],"sum_hessian":[2.9028088E2,2.8089642E2,9.384445E0,2.710904E2,9.806038E0,1.2593683E1,2.584967E2,1.0084791E0,8.797559E0,6.835885E0,5.7577987E0,2.6626492E1,2.3187022E2,1.1195252E0,7.678034E0,1.3407294E0,5.495156E0,3.4718432E0,2.2859554E0,1.217167E1,1.4454822E1,6.889406E1,1.6297617E2,1.5062083E0,1.9656348E0,1.01620655E1,2.009604E0,2.715029E0,1.1739793E1,5.150856E0,6.3743202E1,2.4688509E1,1.3828764E2],"tree_param":{"num_deleted":"0","num_feature":"12","num_nodes":"33","size_leaf_vector":"1"}},{"base_weights":[-3.5462397E-1,-1.5778953E-1,3.528655E-1,-1.1569879E-1,4.0706426E-1,-9.0258114E-2,4.0024213E-2,4.3788803E-1,-2.3878993E-2,1.0160954E-1,1.5123251E-1,1.0550781E-1,-5.1974557E-2],"categories":[],"categories_nodes":[],"categories_segments":[],"categories_sizes":[],"default_left":[0,0,0,0,0,0,0,0,0,0,0,0,0],"id":25,"left_children":[1,-1,3,5,7,-1,-1,9,-1,11,-1,-1,-1],"loss_changes":[1.4460875E1,0E0,6.453619E-1,1.8871564E-1,3.5492086E-1,0E0,0E0,3.990388E-1,0E0,3.756817E-1,0E0,0E0,0E0],"parents":[2147483647,0,0,2,2,3,3,4,4,7,7,9,9],"right_children":[2,-1,4,6,8,-1,-1,10,-1,12,-1,-1,-1],"split_conditions":[-1.7587401E-1,-1.5778953E-1,-1.1294922E0,-1.2131722E-1,1.1920809E1,-9.0258114E-2,4.0024213E-2,9.753572E-2,-2.3878993E-2,-6.7285694E-2,1.5123251E-1,1.0550781E-1,-5.1974557E-2],"split_indices":[4,0,9,3,6,0,0,4,0,4,0,0,0],"split_type":[0,0,0,0,0,0,0,0,0,0,0,0,0],"sum_hessian":[1.1676143E2,9.42036E1,2.255783E1,2.221095E0,2.0336737E1,1.1549282E0,1.0661669E0,1.9219637E1,1.1170996E0,3.5790439E0,1.5640593E1,1.7276113E0,1.8514326E0],"tree_param":{"num_deleted":"0","num_feature":"12","num_nodes":"13","size_leaf_vector":"1"}},{"base_weights":[9.491856E-2,7.368628E-2,4.3368393E-1,9.249407E-2,-2.8866267E-1,4.7557774E-1,3.1834044E-3,3.628427E-1,6.623822E-2,-3.6847812E-1,7.079682E-2,6.638742E-3,5.08031E-1,4.1355395E-1,-9.1538586E-2,8.899795E-2,-2.2999799E-1,9.848472E-2,-1.4462608E-1,2.6090203E-2,1.6159952E-1,2.1350196E-1,1.4916512E-1,5.0590813E-1,4.930424E-2,-4.05517E-1,5.1063186E-1,9.01791E-2,-4.209681E-2,1.3253741E-1,4.930103E-3,1.7033757E-1,-9.021022E-2,2.396739E-2,-1.23102024E-1,3.22095E-2,-1.488291E-1,2.3850492E-1,-2.758981E-2],"categories":[],"categories_nodes":[],"categories_segments":[],"categories_sizes":[],"default_left":[0,0,0,0,0,0,0,0,0,0,0,0,0,0,0,0,0,0,0,0,0,0,0,0,0,0,0,0,0,0,0,0,0,0,0,0,0,0,0],"id":26,"left_children":[1,3,5,7,9,11,-1,13,15,17,-1,-1,19,21,-1,23,25,27,-1,-1,-1,29,-1,31,33,35,37,-1,-1,-1,-1,-1,-1,-1,-1,-1,-1,-1,-1],"loss_changes":[2.068865E0,1.9079951E0,2.966454E-1,1.8441403E0,6.6752553E-1,2.1634007E-1,0E0,9.0780544E-1,1.6461232E0,7.0658267E-1,0E0,0E0,1.3872528E-1,2.598958E-1,0E0,3.6924286E0,2.4796383E0,1.9960174E-1,0E0,0E0,0E0,3.617321E-1,0E0,1.1400971E0,2.9319558E0,7.357197E-1,7.229301E-1,0E0,0E0,0E0,0E0,0E0,0E0,0E0,0E0,0E0,0E0,0E0,0E0],"parents":[2147483647,0,0,1,1,2,2,3,3,4,4,5,5,7,7,8,8,9,9,12,12,13,13,15,15,16,16,17,17,21,21,23,23,24,24,25,25,26,26],"right_children":[2,4,6,8,10,12,-1,14,16,18,-1,-1,20,22,-1,24,26,28,-1,-1,-1,30,-1,32,34,36,38,-1,-1,-1,-1,-1,-1,-1,-1,-1,-1,-1,-1],"split_conditions":[1.1762751E0,2.2300715E0,2.241873E0,-2.5908792E-1,1.1761408E1,-1.0502582E0,3.1834044E-3,1.676908E0,1.4643984E0,-8.6759186E-1,7.079682E-2,6.638742E-3,-5.4256195E-1,-6.232204E-1,-9.1538586E-2,-1.0187014E0,-9.4632E-1,-1.1294922E0,-1.4462608E-1,2.6090203E-2,1.6159952E-1,-1.7378129E0,1.4916512E-1,1.9315348E0,1.154479E0,-1.1169295E-1,-3.0690363E-1,9.01791E-2,-4.209681E-2,1.3253741E-1,4.930103E-3,1.7033757E-1,-9.021022E-2,2.396739E-2,-1.23102024E-1,3.22095E-2,-1.488291E-1,2.3850492E-1,-2.758981E-2],"split_indices":[0,5,5,9,7,1,0,1,1,2,0,0,8,0,0,8,8,9,0,0,0,9,0,11,1,3,0,0,0,0,0,0,0,0,0,0,0,0,0],"split_type":[0,0,0,0,0,0,0,0,0,0,0,0,0,0,0,0,0,0,0,0,0,0,0,0,0,0,0,0,0,0,0,0,0,0,0,0,0,0,0],"sum_hessian":[2.9107443E2,2.750529E2,1.6021551E1,2.6218866E2,1.2864213E1,1.44650755E1,1.556476E0,2.2074514E1,2.4011415E2,1.1423956E1,1.4402578E0,1.0784515E0,1.3386624E1,2.087091E1,1.2036034E0,2.2363213E2,1.6482016E1,2.2615402E0,9.1624155E0,1.1682316E0,1.2218392E1,7.201908E0,1.3669003E1,1.841985E1,2.0521228E2,1.3690117E1,2.7918983E0,1.0847394E0,1.1768006E0,2.7613106E0,4.4405975E0,1.7382336E1,1.0375141E0,1.9318309E2,1.2029193E1,2.027079E0,1.1663038E1,1.6798232E0,1.1120751E0],"tree_param":{"num_deleted":"0","num_feature":"12","num_nodes":"39","size_leaf_vector":"1"}},{"base_weights":[4.1838806E-2,5.739285E-2,-1.3856962E-1,7.8052424E-2,-2.2480196E-1,-1.2099411E-1,1.142082E-1,-5.7429594E-1,5.763598E-2,-3.126948E-1,1.074783E-1,2.6835707E-1,4.968158E-2,-1.8830821E-1,-2.8620707E-2,5.197382E-1,-3.9599198E-1,-4.583887E-1,-1.5117069E-2,-1.6469151E-1,3.254257E-1,-6.60726E-2,3.307817E-1,-1.7275849E-1,1.5256059E-1,3.328324E-2,1.8022838E-1,-1.542983E-1,2.9039318E-2,-1.5646002E-1,4.725837E-2,1.2615463E-1,-7.4184895E-2,-1.3707907E-1,6.615807E-2,1.32911E-1,-5.7481322E-2,-9.036726E-2,1.217931E-1,3.4940585E-2,1.5299797E-1,-8.221456E-3,-1.9374649E-1,1.858997E-2,1.4135149E-1],"categories":[],"categories_nodes":[],"categories_segments":[],"categories_sizes":[],"default_left":[0,0,0,0,0,0,0,0,0,0,0,0,0,0,0,0,0,0,0,0,0,0,0,0,0,0,0,0,0,0,0,0,0,0,0,0,0,0,0,0,0,0,0,0,0],"id":27,"left_children":[1,3,-1,5,7,9,11,13,15,17,19,21,23,-1,-1,25,27,29,31,33,35,37,39,41,43,-1,-1,-1,-1,-1,-1,-1,-1,-1,-1,-1,-1,-1,-1,-1,-1,-1,-1,-1,-1],"loss_changes":[2.1876316E0,1.5826261E0,0E0,1.8193303E0,1.8661981E0,1.743999E0,2.1036208E0,1.5469551E-1,2.5492477E0,9.2479134E-1,1.1546187E0,1.3281994E0,3.4877422E0,0E0,0E0,1.310978E-1,4.1185808E-1,6.419203E-1,9.2296225E-1,1.1046968E0,7.3209107E-1,1.3074024E0,1.9722767E0,3.303613E0,2.9713356E0,0E0,0E0,0E0,0E0,0E0,0E0,0E0,0E0,0E0,0E0,0E0,0E0,0E0,0E0,0E0,0E0,0E0,0E0,0E0,0E0],"parents":[2147483647,0,0,1,1,3,3,4,4,5,5,6,6,7,7,8,8,9,9,10,10,11,11,12,12,15,15,16,16,17,17,18,18,19,19,20,20,21,21,22,22,23,23,24,24],"right_children":[2,4,-1,6,8,10,12,14,16,18,20,22,24,-1,-1,26,28,30,32,34,36,38,40,42,44,-1,-1,-1,-1,-1,-1,-1,-1,-1,-1,-1,-1,-1,-1,-1,-1,-1,-1,-1,-1],"split_conditions":[9.753572E-2,1.0401604E0,-1.3856962E-1,-3.9279082E-1,7.2965944E-1,1.6002792E-1,-9.609711E-2,3.4414738E-1,8.385471E-1,-1.1029404E-1,5.5810988E-2,-9.05152E-1,1.5901768E-1,-1.8830821E-1,-2.8620707E-2,2.2683156E-1,1.9455237E0,1.5269668E0,-4.4313756E-1,2.7424878E-1,7.825161E-1,-1.2595978E0,-2.3186813E-1,1.3375603E-1,1.037032E0,3.328324E-2,1.8022838E-1,-1.542983E-1,2.9039318E-2,-1.5646002E-1,4.725837E-2,1.2615463E-1,-7.4184895E-2,-1.3707907E-1,6.615807E-2,1.32911E-1,-5.7481322E-2,-9.036726E-2,1.217931E-1,3.4940585E-2,1.5299797E-1,-8.221456E-3,-1.9374649E-1,1.858997E-2,1.4135149E-1],"split_indices":[4,2,0,2,0,9,2,11,0,3,10,8,2,0,0,11,2,1,8,11,9,0,2,2,1,0,0,0,0,0,0,0,0,0,0,0,0,0,0,0,0,0,0,0,0],"split_type":[0,0,0,0,0,0,0,0,0,0,0,0,0,0,0,0,0,0,0,0,0,0,0,0,0,0,0,0,0,0,0,0,0,0,0,0,0,0,0,0,0,0,0,0,0],"sum_hessian":[2.7482373E2,2.674516E2,7.372113E0,2.4988113E2,1.7570473E1,3.805153E1,2.118296E2,7.3911595E0,1.0179313E1,2.049037E1,1.7561157E1,6.1574425E1,1.5025519E2,6.370152E0,1.0210075E0,4.970362E0,5.2089505E0,1.3392841E1,7.097528E0,7.91783E0,9.643328E0,9.676379E0,5.189805E1,4.7301945E1,1.0295324E2,1.2140875E0,3.7562745E0,4.165069E0,1.0438815E0,1.2286456E1,1.1063855E0,2.1854715E0,4.9120564E0,4.3964143E0,3.521416E0,7.9728293E0,1.6704984E0,6.7004356E0,2.975943E0,2.4385788E1,2.751226E1,3.6993294E1,1.0308649E1,8.109043E1,2.1862808E1],"tree_param":{"num_deleted":"0","num_feature":"12","num_nodes":"45","size_leaf_vector":"1"}},{"base_weights":[-3.5511288E-1,-1.5576927E-1,3.1828234E-1,1.789469E-2,4.044841E-1,-1.0357592E-1,1.9360754E-1,7.5676837E-3,4.5869166E-1,1.0700679E-1,-2.3121022E-2,1.5073974E-1,-1.0702159E-2],"categories":[],"categories_nodes":[],"categories_segments":[],"categories_sizes":[],"default_left":[0,0,0,0,0,0,0,0,0,0,0,0,0],"id":28,"left_children":[1,-1,3,5,7,-1,9,-1,11,-1,-1,-1,-1],"loss_changes":[1.0992299E1,0E0,5.0591755E-1,4.1557786E-1,3.0405426E-1,0E0,2.1835457E-1,0E0,3.0734992E-1,0E0,0E0,0E0,0E0],"parents":[2147483647,0,0,2,2,3,3,4,4,6,6,8,8],"right_children":[2,-1,4,6,8,-1,10,-1,12,-1,-1,-1,-1],"split_conditions":[2.2300715E0,-1.5576927E-1,1.7277803E-1,2.9543445E-1,-1.1206241E0,-1.0357592E-1,1.4542688E0,7.5676837E-3,5.1251564E0,1.0700679E-1,-2.3121022E-2,1.5073974E-1,-1.0702159E-2],"split_indices":[5,0,4,8,9,0,8,0,4,0,0,0,0],"split_type":[0,0,0,0,0,0,0,0,0,0,0,0,0],"sum_hessian":[9.696776E1,7.8150154E1,1.8817608E1,4.4652214E0,1.4352387E1,1.141402E0,3.3238192E0,1.9781048E0,1.2374282E1,1.87586E0,1.4479593E0,1.1352663E1,1.0216191E0],"tree_param":{"num_deleted":"0","num_feature":"12","num_nodes":"13","size_leaf_vector":"1"}},{"base_weights":[8.4106915E-2,6.478701E-2,3.826453E-1,3.1495094E-1,4.351952E-2,1.6329296E-1,-4.4082873E-2,4.524143E-1,-1.780383E-2,-6.690049E-2,9.771456E-2,-3.100556E-1,1.04214E-1,1.5825604E-1,1.648082E-1,-2.7480045E-1,1.9309598E-1,7.0735574E-2,-2.9089397E-1,3.575314E-1,3.5776176E-2,2.5864702E-3,-1.303536E-1,1.3650137E-1,-1.01393856E-1,1.3803002E-2,-1.3795441E-1,1.0859154E-1,-1.190514E-2,-1.8550166E-1,1.6204041E-1,4.692279E-1,-3.733855E-1,5.0671613E-1,1.0529886E-1,1.0378967E-1,-2.4144028E-1,5.3668313E-2,-9.130368E-2,1.0522132E-1,-2.4830043E-2,1.7396812E-1,3.4171008E-2,4.7562174E-2,-1.4361008E-1,2.0671599E-1,4.274064E-2,1.100728E-1,-1.19152434E-1,9.385771E-2,-1.4309466E-2,1.0732616E-2,-1.1050713E-1],"categories":[],"categories_nodes":[],"categories_segments":[],"categories_sizes":[],"default_left":[0,0,0,0,0,0,0,0,0,0,0,0,0,0,0,0,0,0,0,0,0,0,0,0,0,0,0,0,0,0,0,0,0,0,0,0,0,0,0,0,0,0,0,0,0,0,0,0,0,0,0,0,0],"id":29,"left_children":[1,3,5,7,9,-1,11,13,15,17,19,21,-1,-1,23,25,27,29,31,33,35,-1,-1,-1,-1,-1,-1,-1,-1,37,39,41,43,45,47,49,51,-1,-1,-1,-1,-1,-1,-1,-1,-1,-1,-1,-1,-1,-1,-1,-1],"loss_changes":[1.5695705E0,1.3740015E0,1.169029E0,9.355335E-1,1.4520446E0,0E0,6.788432E-1,2.2382665E-1,4.2649147E-1,2.4905956E0,2.6012135E0,1.5424672E-1,0E0,0E0,8.00647E-1,2.3001516E-1,1.8621488E-1,1.2098997E0,2.0994933E0,1.1190867E0,2.5190723E0,0E0,0E0,0E0,0E0,0E0,0E0,0E0,0E0,6.483892E-1,1.7712467E0,6.95132E-2,1.6579509E0,1.1847081E0,1.8338315E0,3.4011307E0,9.4062626E-1,0E0,0E0,0E0,0E0,0E0,0E0,0E0,0E0,0E0,0E0,0E0,0E0,0E0,0E0,0E0,0E0],"parents":[2147483647,0,0,1,1,2,2,3,3,4,4,6,6,7,7,8,8,9,9,10,10,11,11,14,14,15,15,16,16,17,17,18,18,19,19,20,20,29,29,30,30,31,31,32,32,33,33,34,34,35,35,36,36],"right_children":[2,4,6,8,10,-1,12,14,16,18,20,22,-1,-1,24,26,28,30,32,34,36,-1,-1,-1,-1,-1,-1,-1,-1,38,40,42,44,46,48,50,52,-1,-1,-1,-1,-1,-1,-1,-1,-1,-1,-1,-1,-1,-1,-1,-1],"split_conditions":[8.710962E-1,-7.5007915E-1,-8.9375925E-1,2.777201E-1,-9.609711E-2,1.6329296E-1,1.3691883E0,1.6909899E-1,3.1488362E-1,-2.3186813E-1,-9.294632E-2,1.05397664E-1,1.04214E-1,1.5825604E-1,1.6088266E-2,1.2881164E-1,3.3982372E-1,4.7975898E-2,-9.596536E-1,-5.3798807E-1,6.9979405E-1,2.5864702E-3,-1.303536E-1,1.3650137E-1,-1.01393856E-1,1.3803002E-2,-1.3795441E-1,1.0859154E-1,-1.190514E-2,-9.4198084E-1,1.3424379E-1,8.8614655E-1,1.9696845E-1,1.1464284E-1,-7.4133284E-2,5.7654536E-1,9.631702E-1,5.3668313E-2,-9.130368E-2,1.0522132E-1,-2.4830043E-2,1.7396812E-1,3.4171008E-2,4.7562174E-2,-1.4361008E-1,2.0671599E-1,4.274064E-2,1.100728E-1,-1.19152434E-1,9.385771E-2,-1.4309466E-2,1.0732616E-2,-1.1050713E-1],"split_indices":[9,2,1,11,2,0,0,9,11,2,3,10,0,0,10,10,11,10,8,8,10,0,0,0,0,0,0,0,0,1,9,1,11,2,9,2,1,0,0,0,0,0,0,0,0,0,0,0,0,0,0,0,0],"split_type":[0,0,0,0,0,0,0,0,0,0,0,0,0,0,0,0,0,0,0,0,0,0,0,0,0,0,0,0,0,0,0,0,0,0,0,0,0,0,0,0,0,0,0,0,0,0,0,0,0,0,0,0,0],"sum_hessian":[2.754277E2,2.5982983E2,1.5597865E1,1.9276487E1,2.4055334E2,1.1112419E1,4.485446E0,1.338673E1,5.889757E0,7.911848E1,1.6143486E2,2.794635E0,1.6908107E0,9.95333E0,3.4334004E0,2.5181813E0,3.3715758E0,4.942981E1,2.9688663E1,3.0157774E1,1.3127708E2,1.0462868E0,1.7483482E0,2.2371883E0,1.196212E0,1.1960293E0,1.3221521E0,1.6323506E0,1.7392254E0,1.2714962E1,3.6714848E1,2.4475362E0,2.7241127E1,1.8315825E1,1.18419485E1,1.0591664E2,2.536045E1,3.0027428E0,9.712219E0,2.0489128E1,1.6225721E1,1.3843647E0,1.0631716E0,4.418527E0,2.28226E1,1.1611535E1,6.704289E0,7.9648714E0,3.8770776E0,4.4053246E1,6.1863396E1,8.189912E0,1.717054E1],"tree_param":{"num_deleted":"0","num_feature":"12","num_nodes":"53","size_leaf_vector":"1"}},{"base_weights":[3.6132876E-2,-2.4635878E-1,5.9231382E-2,-1.4027075E-1,-1.3969293E-2,8.727768E-2,-1.479974E-1,1.1071602E-1,-1.068378E-1,1.2329111E-1,-1.4683375E-1,1.08015895E-1,-4.9523088E-1,-9.950914E-2,2.4442872E-1,-2.398434E-3,2.1076986E-1,-3.069427E-1,3.7074262E-1,-2.257873E-1,3.0011082E-1,2.098E-2,-5.8908665E-1,-2.325654E-2,3.841219E-1,1.037211E-1,-2.3177545E-1,-1.8813656E-1,2.435417E-1,-7.4079525E-1,-1.21395364E-1,4.6061355E-1,-1.8076617E-2,-2.1296966E-1,-3.446196E-3,5.28101E-1,6.314633E-2,-1.771984E-2,-1.9253214E-1,1.0285055E-2,1.4105986E-1,-3.1275086E-2,1.2720813E-1,-1.18911855E-1,5.6387205E-2,-1.5692297E-1,4.637909E-2,5.8315467E-2,1.6042095E-1,-2.7524364E-1,-8.274284E-3,1.28672E-1,-9.057822E-2,1.5487163E-1,2.9380428E-2,1.0667612E-1,-4.997688E-2,3.9703753E-2,1.7797913E-1,-1.139581E-1,1.42864E-1],"categories":[],"categories_nodes":[],"categories_segments":[],"categories_sizes":[],"default_left":[0,0,0,0,0,0,0,0,0,0,0,0,0,0,0,0,0,0,0,0,0,0,0,0,0,0,0,0,0,0,0,0,0,0,0,0,0,0,0,0,0,0,0,0,0,0,0,0,0,0,0,0,0,0,0,0,0,0,0,0,0],"id":30,"left_children":[1,3,5,-1,7,9,11,13,-1,15,17,19,21,-1,23,25,27,29,31,33,35,-1,37,-1,39,41,43,45,47,49,51,53,-1,-1,55,57,59,-1,-1,-1,-1,-1,-1,-1,-1,-1,-1,-1,-1,-1,-1,-1,-1,-1,-1,-1,-1,-1,-1,-1,-1],"loss_changes":[1.6972935E0,1.0054699E0,1.4031115E0,0E0,4.929784E-1,1.7996867E0,2.6212113E0,5.871387E-1,0E0,2.020107E0,2.4862006E0,1.1864974E0,7.0092416E-1,0E0,3.5111725E-1,1.8829097E0,1.4618015E0,1.7142289E0,3.0728585E-1,7.449418E-1,5.8813477E-1,0E0,2.6290917E-1,0E0,1.3898808E-1,3.5682616E0,1.7646694E0,1.0895826E0,1.335022E0,7.960117E-1,1.8078837E0,7.224536E-2,0E0,0E0,3.9680353E-1,6.9173336E-2,1.4209427E0,0E0,0E0,0E0,0E0,0E0,0E0,0E0,0E0,0E0,0E0,0E0,0E0,0E0,0E0,0E0,0E0,0E0,0E0,0E0,0E0,0E0,0E0,0E0,0E0],"parents":[2147483647,0,0,1,1,2,2,4,4,5,5,6,6,7,7,9,9,10,10,11,11,12,12,14,14,15,15,16,16,17,17,18,18,19,19,20,20,22,22,24,24,25,25,26,26,27,27,28,28,29,29,30,30,31,31,34,34,35,35,36,36],"right_children":[2,4,6,-1,8,10,12,14,-1,16,18,20,22,-1,24,26,28,30,32,34,36,-1,38,-1,40,42,44,46,48,50,52,54,-1,-1,56,58,60,-1,-1,-1,-1,-1,-1,-1,-1,-1,-1,-1,-1,-1,-1,-1,-1,-1,-1,-1,-1,-1,-1,-1,-1],"split_conditions":[-2.6459417E-1,-8.869302E-2,3.5318282E-1,-1.4027075E-1,-1.0122867E-1,7.2306484E-1,4.5068395E-1,-1.7218258E0,-1.068378E-1,-9.211461E-2,-8.722615E-1,2.3944542E-2,-1.7336512E-1,-9.950914E-2,-5.6933236E-1,-1.3504657E-1,-1.1252211E0,7.7241963E-1,8.8843817E-1,3.6134815E-1,3.8319024E-1,2.098E-2,-6.5555227E-1,-2.325654E-2,-2.5892583E-1,-2.3186813E-1,-5.3798807E-1,2.2109336E-1,9.862048E-1,8.0345595E-1,8.01144E-1,-3.3941507E-1,-1.8076617E-2,-2.1296966E-1,3.685131E-1,4.872868E-3,1.037032E0,-1.771984E-2,-1.9253214E-1,1.0285055E-2,1.4105986E-1,-3.1275086E-2,1.2720813E-1,-1.18911855E-1,5.6387205E-2,-1.5692297E-1,4.637909E-2,5.8315467E-2,1.6042095E-1,-2.7524364E-1,-8.274284E-3,1.28672E-1,-9.057822E-2,1.5487163E-1,2.9380428E-2,1.0667612E-1,-4.997688E-2,3.9703753E-2,1.7797913E-1,-1.139581E-1,1.42864E-1],"split_indices":[9,1,11,0,2,9,0,9,0,3,1,10,3,0,2,2,1,9,9,11,1,0,10,0,8,2,8,11,3,2,9,8,0,0,11,2,1,0,0,0,0,0,0,0,0,0,0,0,0,0,0,0,0,0,0,0,0,0,0,0,0],"split_type":[0,0,0,0,0,0,0,0,0,0,0,0,0,0,0,0,0,0,0,0,0,0,0,0,0,0,0,0,0,0,0,0,0,0,0,0,0,0,0,0,0,0,0,0,0,0,0,0,0,0,0,0,0,0,0,0,0,0,0,0,0],"sum_hessian":[2.568799E2,1.8686079E1,2.3819383E2,9.054828E0,9.631251E0,2.1030943E2,2.7884398E1,7.5546713E0,2.0765805E0,1.8268094E2,2.7628502E1,1.6447025E1,1.1437373E1,1.4097111E0,6.14496E0,7.5366646E1,1.07314285E2,2.1411846E1,6.2166567E0,5.943542E0,1.0503483E1,1.6651784E0,9.772195E0,1.994136E0,4.150824E0,5.190227E1,2.3464376E1,7.7871E0,9.952718E1,5.517701E0,1.5894145E1,5.0871744E0,1.1294824E0,1.1804554E0,4.7630863E0,4.726946E0,5.776537E0,1.0753621E0,8.696833E0,1.0957483E0,3.055076E0,3.1878448E1,2.002382E1,1.6894777E1,6.569599E0,3.6722066E0,4.114893E0,8.657922E1,1.2947963E1,4.1926594E0,1.3250415E0,3.5863512E0,1.2307794E1,4.043591E0,1.0435832E0,1.1195877E0,3.643499E0,1.0967883E0,3.6301577E0,2.8260458E0,2.950491E0],"tree_param":{"num_deleted":"0","num_feature":"12","num_nodes":"61","size_leaf_vector":"1"}},{"base_weights":[-3.4520617E-1,-1.5399688E-1,3.028297E-1,3.0056862E-2,3.8617823E-1,-9.6721455E-2,1.9661401E-1,1.1202587E-2,4.3895736E-1,1.03722334E-1,-1.7044706E-2,1.4592561E-1,-8.438783E-3],"categories":[],"categories_nodes":[],"categories_segments":[],"categories_sizes":[],"default_left":[0,0,0,0,0,0,0,0,0,0,0,0,0],"id":31,"left_children":[1,-1,3,5,7,-1,9,-1,11,-1,-1,-1,-1],"loss_changes":[9.1131525E0,0E0,3.877492E-1,3.6839333E-1,2.297678E-1,0E0,1.7646384E-1,0E0,2.690642E-1,0E0,0E0,0E0,0E0],"parents":[2147483647,0,0,2,2,3,3,4,4,6,6,8,8],"right_children":[2,-1,4,6,8,-1,10,-1,12,-1,-1,-1,-1],"split_conditions":[2.2300715E0,-1.5399688E-1,1.7277803E-1,2.9543445E-1,-1.1206241E0,-9.6721455E-2,1.4542688E0,1.1202587E-2,5.1251564E0,1.03722334E-1,-1.7044706E-2,1.4592561E-1,-8.438783E-3],"split_indices":[5,0,4,8,9,0,8,0,4,0,0,0,0],"split_type":[0,0,0,0,0,0,0,0,0,0,0,0,0],"sum_hessian":[8.122174E1,6.465619E1,1.6565556E1,4.1955357E0,1.2370021E1,1.0461062E0,3.1494293E0,1.8500297E0,1.0519991E1,1.7534112E0,1.3960183E0,9.512068E0,1.0079232E0],"tree_param":{"num_deleted":"0","num_feature":"12","num_nodes":"13","size_leaf_vector":"1"}},{"base_weights":[7.3450595E-2,5.9836775E-2,4.2261007E-1,1.4351557E-1,4.8445348E-2,1.6026473E-1,-2.658394E-2,7.002683E-2,-2.4158075E-1,4.4991133E-1,3.761011E-2,-3.497415E-1,1.4670625E-1,5.5271655E-1,-5.1798094E-2,5.8483303E-2,-3.1985202E-1,3.465103E-2,-4.2433816E-1,8.463547E-2,2.2694887E-1,9.505176E-2,-1.1159051E-1,1.1413858E-1,1.0698954E-2,-1.4524634E-1,4.7372703E-2,9.632013E-2,-9.412433E-2,-1.5791035E-1,-2.4991335E-2],"categories":[],"categories_nodes":[],"categories_segments":[],"categories_sizes":[],"default_left":[0,0,0,0,0,0,0,0,0,0,0,0,0,0,0,0,0,0,0,0,0,0,0,0,0,0,0,0,0,0,0],"id":32,"left_children":[1,3,5,-1,7,-1,-1,9,11,13,15,17,-1,19,21,23,25,27,29,-1,-1,-1,-1,-1,-1,-1,-1,-1,-1,-1,-1],"loss_changes":[1.2085471E0,1.1735265E0,5.936971E-1,0E0,1.553272E0,0E0,0E0,2.8059702E0,1.5321628E0,9.5352364E-1,1.6027509E0,4.6163714E-1,0E0,6.1194944E-1,5.856935E-1,1.4664712E0,1.0080092E0,4.4576588E-1,4.1297507E-1,0E0,0E0,0E0,0E0,0E0,0E0,0E0,0E0,0E0,0E0,0E0,0E0],"parents":[2147483647,0,0,1,1,2,2,4,4,7,7,8,8,9,9,10,10,11,11,13,13,14,14,15,15,16,16,17,17,18,18],"right_children":[2,4,6,-1,8,-1,-1,10,12,14,16,18,-1,20,22,24,26,28,30,-1,-1,-1,-1,-1,-1,-1,-1,-1,-1,-1,-1],"split_conditions":[9.310095E-1,-1.7046318E0,3.4290177E-1,1.4351557E-1,1.4643984E0,1.6026473E-1,-2.658394E-2,-1.0187014E0,1.7968144E0,3.3709055E-1,1.154479E0,-1.2971387E0,1.4670625E-1,3.3635113E-1,-1.1159394E0,-8.998429E-1,1.3924222E0,-7.6331876E-2,-8.3125293E-1,8.463547E-2,2.2694887E-1,9.505176E-2,-1.1159051E-1,1.1413858E-1,1.0698954E-2,-1.4524634E-1,4.7372703E-2,9.632013E-2,-9.412433E-2,-1.5791035E-1,-2.4991335E-2],"split_indices":[9,9,11,0,1,0,0,8,1,11,1,0,0,9,8,8,1,3,8,0,0,0,0,0,0,0,0,0,0,0,0],"split_type":[0,0,0,0,0,0,0,0,0,0,0,0,0,0,0,0,0,0,0,0,0,0,0,0,0,0,0,0,0,0,0],"sum_hessian":[2.5856918E2,2.4999324E2,8.575929E0,5.5374875E0,2.4445575E2,7.0022783E0,1.5736504E0,2.2823112E2,1.6224632E1,1.693182E1,2.112993E2,1.4586494E1,1.6381373E0,1.3967976E1,2.9638436E0,2.0043193E2,1.0867375E1,2.4576824E0,1.2128812E1,7.024539E0,6.9434366E0,1.3824843E0,1.5813593E0,1.2228118E1,1.8820381E2,8.076484E0,2.7908916E0,1.3918787E0,1.0658036E0,8.91746E0,3.211351E0],"tree_param":{"num_deleted":"0","num_feature":"12","num_nodes":"31","size_leaf_vector":"1"}},{"base_weights":[3.134489E-2,-2.2986521E-1,5.0827477E-2,1.2855017E-2,-1.2944305E-1,7.613923E-2,-1.4137384E-1,-9.8498024E-2,1.3011953E-1,8.937504E-2,-3.977619E-1,9.3854904E-2,-4.6249104E-1,2.5078738E-1,-9.1740906E-2,3.675683E-2,1.887183E-1,-1.3349095E-1,-2.6626213E-2,-2.0380984E-1,2.711593E-1,1.8546151E-2,-5.562231E-1,-1.9412708E-2,1.11618735E-1,5.650679E-2,-4.5998558E-1,2.990113E-1,-9.449591E-2,1.0836766E-1,-5.173739E-1,1.5913393E-1,6.692318E-2,-1.715834E-2,-1.8302388E-1,2.5200771E-2,-7.1516536E-2,-6.320278E-2,-2.1964863E-1,5.4913275E-2,1.6946085E-1,-1.6645667E-1,6.934856E-2,-8.2688995E-2,9.9228226E-2,-2.6291028E-1,2.7627967E-2,-6.875955E-2,1.314645E-1],"categories":[],"categories_nodes":[],"categories_segments":[],"categories_sizes":[],"default_left":[0,0,0,0,0,0,0,0,0,0,0,0,0,0,0,0,0,0,0,0,0,0,0,0,0,0,0,0,0,0,0,0,0,0,0,0,0,0,0,0,0,0,0,0,0,0,0,0,0],"id":33,"left_children":[1,3,5,7,-1,9,11,-1,13,15,17,19,21,23,-1,25,27,-1,-1,29,31,-1,33,-1,-1,35,37,39,41,43,45,-1,47,-1,-1,-1,-1,-1,-1,-1,-1,-1,-1,-1,-1,-1,-1,-1,-1],"loss_changes":[1.256692E0,8.4535384E-1,1.1223233E0,3.9311612E-1,0E0,1.3060055E0,2.0782232E0,0E0,4.5721263E-1,1.0273192E0,4.346317E-2,9.1974854E-1,6.0242677E-1,2.6187682E-1,0E0,1.3071597E0,2.1607265E0,0E0,0E0,7.1048886E-1,5.3083163E-1,0E0,2.3132896E-1,0E0,0E0,1.0456256E0,1.9201934E-1,1.4188495E0,3.1108067E0,4.4787204E-1,8.483484E-1,0E0,8.839961E-1,0E0,0E0,0E0,0E0,0E0,0E0,0E0,0E0,0E0,0E0,0E0,0E0,0E0,0E0,0E0,0E0],"parents":[2147483647,0,0,1,1,2,2,3,3,5,5,6,6,8,8,9,9,10,10,11,11,12,12,13,13,15,15,16,16,19,19,20,20,22,22,25,25,26,26,27,27,28,28,29,29,30,30,32,32],"right_children":[2,4,6,8,-1,10,12,-1,14,16,18,20,22,24,-1,26,28,-1,-1,30,32,-1,34,-1,-1,36,38,40,42,44,46,-1,48,-1,-1,-1,-1,-1,-1,-1,-1,-1,-1,-1,-1,-1,-1,-1,-1],"split_conditions":[-2.6459417E-1,-1.2035044E-1,3.5318282E-1,-1.7218258E0,-1.2944305E-1,9.310095E-1,4.5068395E-1,-9.8498024E-2,3.1341735E-1,3.0308157E-1,1.1511773E0,2.3944542E-2,-1.7336512E-1,-1.1592486E-1,-9.1740906E-2,2.991048E-1,5.3648907E-1,-1.3349095E-1,-2.6626213E-2,-4.355536E-1,-1.16843E-1,1.8546151E-2,-6.5555227E-1,-1.9412708E-2,1.11618735E-1,7.941092E-1,1.2653642E0,3.42838E-1,6.9979405E-1,-9.677032E-1,-8.6536765E-1,1.5913393E-1,1.037032E0,-1.715834E-2,-1.8302388E-1,2.5200771E-2,-7.1516536E-2,-6.320278E-2,-2.1964863E-1,5.4913275E-2,1.6946085E-1,-1.6645667E-1,6.934856E-2,-8.2688995E-2,9.9228226E-2,-2.6291028E-1,2.7627967E-2,-6.875955E-2,1.314645E-1],"split_indices":[9,0,11,9,0,9,0,0,11,11,3,10,3,3,0,11,10,0,0,8,1,0,10,0,0,0,1,10,10,8,1,0,1,0,0,0,0,0,0,0,0,0,0,0,0,0,0,0,0],"split_type":[0,0,0,0,0,0,0,0,0,0,0,0,0,0,0,0,0,0,0,0,0,0,0,0,0,0,0,0,0,0,0,0,0,0,0,0,0,0,0,0,0,0,0,0,0,0,0,0,0],"sum_hessian":[2.436447E2,1.616161E1,2.274831E2,7.757996E0,8.403614E0,2.0154472E2,2.5938364E1,1.5240072E0,6.233989E0,1.9685799E2,4.686737E0,1.537985E1,1.0558515E1,5.2150946E0,1.0188947E0,1.2958952E2,6.726847E1,3.6839378E0,1.0027992E0,5.685442E0,9.694408E0,1.6529303E0,8.905584E0,1.5775456E0,3.6375487E0,1.2548655E2,4.1029696E0,4.8374184E1,1.8894289E1,3.1769454E0,2.5084965E0,3.5677564E0,6.126652E0,1.0683498E0,7.8372345E0,1.15438324E2,1.0048225E1,3.067357E0,1.0356126E0,3.4857765E1,1.3516417E1,7.5365686E0,1.1357719E1,1.0773479E0,2.0995975E0,1.3030429E0,1.2054538E0,3.6212468E0,2.505405E0],"tree_param":{"num_deleted":"0","num_feature":"12","num_nodes":"49","size_leaf_vector":"1"}},{"base_weights":[-3.370833E-1,-1.5251416E-1,2.8761113E-1,-5.0326183E-2,3.4931183E-1,-9.098841E-2,7.3650256E-2,4.2900318E-1,5.5653572E-2,7.7820946E-3,1.4213368E-1,-5.1962778E-2,9.2689134E-2],"categories":[],"categories_nodes":[],"categories_segments":[],"categories_sizes":[],"default_left":[0,0,0,0,0,0,0,0,0,0,0,0,0],"id":34,"left_children":[1,-1,3,5,7,-1,-1,9,11,-1,-1,-1,-1],"loss_changes":[7.6028833E0,0E0,3.4357285E-1,3.2050848E-1,2.884606E-1,0E0,0E0,1.7447686E-1,2.8528568E-1,0E0,0E0,0E0,0E0],"parents":[2147483647,0,0,2,2,3,3,4,4,7,7,8,8],"right_children":[2,-1,4,6,8,-1,-1,10,12,-1,-1,-1,-1],"split_conditions":[-1.7587401E-1,-1.5251416E-1,-1.1206241E0,-1.1029404E-1,3.6283255E-1,-9.098841E-2,7.3650256E-2,-9.986622E-1,-8.608896E-1,7.7820946E-3,1.4213368E-1,-5.1962778E-2,9.2689134E-2],"split_indices":[4,0,9,3,2,0,0,0,1,0,0,0,0],"split_type":[0,0,0,0,0,0,0,0,0,0,0,0,0],"sum_hessian":[6.868299E1,5.4048553E1,1.4634442E1,2.287895E0,1.2346547E1,1.2196774E0,1.0682175E0,9.348666E0,2.997881E0,1.092602E0,8.256063E0,1.7410654E0,1.2568157E0],"tree_param":{"num_deleted":"0","num_feature":"12","num_nodes":"13","size_leaf_vector":"1"}},{"base_weights":[6.391054E-2,4.9078863E-2,3.5354915E-1,6.210954E-2,-2.560139E-1,4.0005773E-1,-1.4856587E-4,3.033962E-1,4.4301163E-2,-3.434489E-1,6.424723E-2,-4.5117354E-3,4.4593933E-1,3.7941682E-1,-4.612704E-2,3.059191E-1,2.8046764E-2,2.3833755E-2,-1.3574989E-1,2.0953469E-2,1.4641972E-1,1.7603472E-2,4.2869613E-1,4.8430952E-1,5.8001984E-2,1.7174389E-3,2.0280908E-1,1.4241938E-1,4.4953283E-2,7.2462945E-3,1.8126026E-1,-6.7967735E-2,1.3159217E-1,-3.9329804E-3,1.4841114E-1,-8.640147E-4,1.5987688E-1],"categories":[],"categories_nodes":[],"categories_segments":[],"categories_sizes":[],"default_left":[0,0,0,0,0,0,0,0,0,0,0,0,0,0,0,0,0,0,0,0,0,0,0,0,0,0,0,0,0,0,0,0,0,0,0,0,0],"id":35,"left_children":[1,3,5,7,9,11,-1,13,15,17,-1,-1,19,21,-1,23,25,-1,-1,-1,-1,-1,27,29,31,33,35,-1,-1,-1,-1,-1,-1,-1,-1,-1,-1],"loss_changes":[1.0460503E0,9.5670146E-1,1.9610143E-1,9.652143E-1,4.8006272E-1,2.0700991E-1,0E0,5.9643507E-1,8.983543E-1,4.3818152E-1,0E0,0E0,1.1647248E-1,1.8923748E-1,0E0,5.1919365E-1,9.2866457E-1,0E0,0E0,0E0,0E0,0E0,7.776117E-2,3.7491822E-1,7.833125E-1,1.2964455E0,1.795916E0,0E0,0E0,0E0,0E0,0E0,0E0,0E0,0E0,0E0,0E0],"parents":[2147483647,0,0,1,1,2,2,3,3,4,4,5,5,7,7,8,8,9,9,12,12,13,13,15,15,16,16,22,22,23,23,24,24,25,25,26,26],"right_children":[2,4,6,8,10,12,-1,14,16,18,-1,-1,20,22,-1,24,26,-1,-1,-1,-1,-1,28,30,32,34,36,-1,-1,-1,-1,-1,-1,-1,-1,-1,-1],"split_conditions":[1.1762751E0,2.2300715E0,2.241873E0,-2.6459417E-1,1.1761408E1,-1.0371422E0,-1.4856587E-4,1.6436608E0,-1.1252211E0,-8.6759186E-1,6.424723E-2,-4.5117354E-3,-3.4560603E-1,-1.8875368E0,-4.612704E-2,6.991507E-1,3.5058105E-1,2.3833755E-2,-1.3574989E-1,2.0953469E-2,1.4641972E-1,1.7603472E-2,1.3315167E0,1.9835342E-1,4.5285895E-1,9.310095E-1,4.5643565E-1,1.4241938E-1,4.4953283E-2,7.2462945E-3,1.8126026E-1,-6.7967735E-2,1.3159217E-1,-3.9329804E-3,1.4841114E-1,-8.640147E-4,1.5987688E-1],"split_indices":[0,5,5,9,7,1,0,1,1,2,0,0,8,0,0,3,11,0,0,0,0,0,1,11,9,9,0,0,0,0,0,0,0,0,0,0,0],"split_type":[0,0,0,0,0,0,0,0,0,0,0,0,0,0,0,0,0,0,0,0,0,0,0,0,0,0,0,0,0,0,0,0,0,0,0,0,0],"sum_hessian":[2.4654308E2,2.3564569E2,1.0897384E1,2.2675719E2,8.888498E0,9.517204E0,1.38018E0,1.4483449E1,2.1227374E2,7.7220063E0,1.1664921E0,1.0141625E0,8.503041E0,1.25641775E1,1.9192716E0,1.1374711E1,2.0089903E2,1.6386924E0,6.083314E0,1.1242229E0,7.3788185E0,1.965071E0,1.0599106E1,6.0603976E0,5.314314E0,1.7547253E2,2.5426498E1,8.494343E0,2.1047633E0,1.5009738E0,4.559424E0,3.2725697E0,2.041744E0,1.7129399E2,4.178541E0,1.6276268E1,9.15023E0],"tree_param":{"num_deleted":"0","num_feature":"12","num_nodes":"37","size_leaf_vector":"1"}},{"base_weights":[2.4952933E-2,3.4030452E-2,-1.2296193E-1,5.012174E-2,-2.0049566E-1,-3.3215933E-2,1.03460245E-1,-5.5526346E-1,8.231265E-2,-4.9148342E-1,5.2180444E-3,-2.2314E-1,1.22313045E-1,-4.1404087E-2,-1.8342526E-1,1.465652E-1,-3.5109022E-1,-1.7214532E-1,-9.126992E-3,2.0150402E-1,-1.5280478E-1,-1.4529535E-1,5.8990143E-2,8.296433E-2,3.060275E-1,2.1912906E-2,-1.4335088E-1,-1.0040905E-1,9.473033E-2,-6.6807576E-2,1.05327226E-1,1.0963779E-1,-1.0085585E-1,4.0213797E-2,-1.11349285E-1,2.0720305E-2,1.3971521E-1],"categories":[],"categories_nodes":[],"categories_segments":[],"categories_sizes":[],"default_left":[0,0,0,0,0,0,0,0,0,0,0,0,0,0,0,0,0,0,0,0,0,0,0,0,0,0,0,0,0,0,0,0,0,0,0,0,0],"id":36,"left_children":[1,3,-1,5,7,9,11,13,15,17,19,21,23,-1,-1,-1,25,-1,-1,27,29,-1,31,33,35,-1,-1,-1,-1,-1,-1,-1,-1,-1,-1,-1,-1],"loss_changes":[9.4148093E-1,8.822048E-1,0E0,9.6832657E-1,1.554542E0,1.5079285E0,8.4374964E-1,7.49352E-2,1.7981569E0,2.3399436E-1,2.507389E0,5.878883E-1,8.855177E-1,0E0,0E0,0E0,3.064742E-1,0E0,0E0,2.3139372E0,1.6559409E0,0E0,6.7273957E-1,2.4890413E0,7.948744E-1,0E0,0E0,0E0,0E0,0E0,0E0,0E0,0E0,0E0,0E0,0E0,0E0],"parents":[2147483647,0,0,1,1,3,3,4,4,5,5,6,6,7,7,8,8,9,9,10,10,11,11,12,12,16,16,19,19,20,20,22,22,23,23,24,24],"right_children":[2,4,-1,6,8,10,12,14,16,18,20,22,24,-1,-1,-1,26,-1,-1,28,30,-1,32,34,36,-1,-1,-1,-1,-1,-1,-1,-1,-1,-1,-1,-1],"split_conditions":[9.753572E-2,1.0401604E0,-1.2296193E-1,1.3424379E-1,7.2965944E-1,-9.596536E-1,1.8675523E-1,-3.478732E-1,8.385471E-1,1.3171281E0,-1.0083414E0,-6.653526E-1,6.9979405E-1,-4.1404087E-2,-1.8342526E-1,1.465652E-1,1.24713585E-1,-1.7214532E-1,-9.126992E-3,-3.3335376E-1,8.7627006E-1,-1.4529535E-1,7.262036E-1,6.218863E-1,-1.0455675E0,2.1912906E-2,-1.4335088E-1,-1.0040905E-1,9.473033E-2,-6.6807576E-2,1.05327226E-1,1.0963779E-1,-1.0085585E-1,4.0213797E-2,-1.11349285E-1,2.0720305E-2,1.3971521E-1],"split_indices":[4,2,0,9,0,8,11,8,0,1,0,8,10,0,0,0,3,0,0,2,1,0,0,10,8,0,0,0,0,0,0,0,0,0,0,0,0],"split_type":[0,0,0,0,0,0,0,0,0,0,0,0,0,0,0,0,0,0,0,0,0,0,0,0,0,0,0,0,0,0,0,0,0,0,0,0,0],"sum_hessian":[2.3398845E2,2.3010643E2,3.8820128E0,2.1606789E2,1.4038547E1,8.446871E1,1.3159917E2,5.7997193E0,8.238828E0,5.62394E0,7.884477E1,6.5905504E0,1.2500862E2,1.0981015E0,4.701618E0,4.1870084E0,4.051819E0,4.564303E0,1.0596371E0,3.504229E1,4.380248E1,3.0502136E0,3.5403368E0,1.0415242E2,2.08562E1,1.0297267E0,3.022092E0,5.8168116E0,2.922548E1,3.8957394E1,4.845086E0,2.0363193E0,1.5040175E0,9.4255165E1,9.897257E0,8.973362E0,1.1882837E1],"tree_param":{"num_deleted":"0","num_feature":"12","num_nodes":"37","size_leaf_vector":"1"}},{"base_weights":[-3.362948E-1,-1.5108696E-1,2.605844E-1,1.770559E-2,3.4020627E-1,-7.466695E-2,1.7407835E-1,1.22249134E-1,1.348151E-1,7.062191E-2,7.0205512E-3,-1.0040459E-1,1.0152158E-1],"categories":[],"categories_nodes":[],"categories_segments":[],"categories_sizes":[],"default_left":[0,0,0,0,0,0,0,0,0,0,0,0,0],"id":37,"left_children":[1,-1,3,5,7,-1,9,11,-1,-1,-1,-1,-1],"loss_changes":[5.982236E0,0E0,2.5477928E-1,2.2610855E-1,1.8544388E-1,0E0,2.5465593E-2,5.819175E-1,0E0,0E0,0E0,0E0,0E0],"parents":[2147483647,0,0,2,2,3,3,4,4,6,6,7,7],"right_children":[2,-1,4,6,8,-1,10,12,-1,-1,-1,-1,-1],"split_conditions":[2.2300715E0,-1.5108696E-1,1.7277803E-1,2.5942988E0,-8.608896E-1,-7.466695E-2,1.2796369E0,4.946082E-1,1.348151E-1,7.062191E-2,7.0205512E-3,-1.0040459E-1,1.0152158E-1],